1000 100
Q22686 1.032064 -1.147838 2.305491 2.446259 -0.771759 0.697139 0.667194 0.912324 -0.110776 -1.119847 0.714622 -1.065066 0.711769 0.201175 -0.488634 0.689822 -0.336266 0.925595 0.352666 1.307746 1.709512 -0.700500 -0.374637 0.493877 -0.005803 1.314819 1.580930 -0.896621 0.104401 -0.222029 -0.397320 -1.761657 0.609408 0.797874 1.016984 0.328749 0.301158 -1.956316 -2.077039 -0.029949 0.603178 0.115019 -0.395775 -0.310957 -0.045954 -0.718667 0.432985 0.057048 0.377135 -0.933014 -1.209392 -0.477271 0.530747 0.789645 -0.638965 -0.404661 -1.179063 0.468093 0.227408 1.538378 -0.334759 -0.764081 -0.386808 -0.815832 -0.967361 -0.290025 1.277156 1.332664 1.303873 -0.516698 0.184301 0.760712 1.167901 -0.516880 1.109731 -0.187321 3.401686 -1.188965 -0.217595 -0.257879 -1.310514 -0.906215 0.435097 0.201418 -1.477612 1.067054 1.062146 -0.211630 -1.752925 -0.761557 -1.124755 0.360769 -0.240707 -0.289206 -0.437184 -0.630708 -0.360387 1.784657 0.264863 0.456528
Q38111 -0.792004 -2.173135 1.600062 2.602146 -1.311331 -1.625246 -0.518842 -0.740771 -1.095158 0.768276 0.205683 1.966055 -0.082297 0.294805 0.459996 -1.019380 -0.697906 -0.962362 0.032302 -1.553383 -0.310900 -0.057101 -1.902377 0.274249 0.430695 -1.444608 -0.581547 0.021587 -1.389825 -2.526674 -0.433232 1.368472 -1.113194 0.502424 1.291360 2.731042 -2.241966 -2.497863 2.997704 0.593029 0.411121 2.208723 0.269320 0.197495 -3.703757 -1.506185 -2.818058 0.158884 2.044010 1.506823 -0.271190 0.378821 -0.543646 1.803956 0.021542 0.148994 1.029330 -0.875567 -2.149585 0.612996 1.908735 0.338975 0.441124 -3.575931 0.536127 0.559571 -0.927332 1.241392 1.918080 -2.347103 -1.013330 -2.087150 2.643286 -1.299233 2.336401 0.654628 0.803878 -2.603330 -2.810576 2.538655 -1.213098 0.883219 -0.496324 0.027134 -0.382003 2.704542 0.370937 -2.709033 -1.930527 -1.656696 -0.031849 2.083732 0.521259 0.264268 -3.185100 -0.763792 -0.260604 -0.572950 -0.182936 2.312031
Q38964 0.425872 0.605696 0.403392 -1.267298 0.739925 0.299208 -0.397951 -1.890829 0.252217 -0.370426 -0.409922 -0.776610 -0.884136 -0.799694 0.616324 -0.223667 0.792166 0.817951 0.474095 -0.557594 0.999993 -1.664969 -0.409585 0.575153 -0.750199 2.355772 -1.060010 1.544610 1.373699 1.092739 -1.071028 0.563608 -0.467680 -1.589697 0.210248 0.912873 0.363033 -0.571951 -0.106039 0.574671 0.557745 1.242450 0.865246 -0.098208 -1.125602 1.359889 -0.174344 0.182426 -0.959726 -0.272760 0.789547 -0.250913 1.390073 -0.881383 0.521084 -0.262498 -2.855478 0.450220 -0.009793 0.995718 -0.751244 0.370907 -0.519741 -0.616676 -1.096038 -0.366580 0.042246 0.497649 -0.585783 1.203570 0.248905 0.419283 1.400816 0.438086 1.030227 0.985714 -0.045659 -0.157237 0.041507 -0.740664 0.473237 0.259449 0.955276 -0.434490 -0.645904 -0.024084 0.353709 1.088524 0.529470 -0.439711 -0.234335 0.275208 1.442733 -0.350819 1.412649 0.885836 0.279340 1.201457 -1.900435 0.938450
Q9960 -1.153347 -1.579889 1.465161 -1.088975 1.697326 0.289365 0.788300 -1.165967 -0.067309 -0.255694 1.399915 0.583606 0.645987 0.159776 0.622181 0.921393 1.073522 1.954333 0.303008 0.424241 1.867244 0.822557 0.506246 0.441500 0.255160 2.482605 2.295632 -0.555948 1.521744 -1.966095 -1.885589 -0.510061 2.558898 1.652533 0.402444 0.621308 1.753349 -0.888099 -0.589943 -0.835556 -0.098956 0.950536 -0.327539 1.678115 -0.644812 -0.822953 0.386585 0.782541 1.122836 1.039326 -1.481749 -1.128869 0.402883 -1.607985 1.230529 -0.624616 -0.870285 -0.861085 -1.109310 -0.511048 -0.555136 -0.293801 0.996926 0.946676 -0.972190 2.681728 -0.584617 1.009961 1.384723 -1.228255 -0.599319 -0.654957 1.514318 0.390117 2.464841 -0.970830 1.603593 1.111506 0.398812 -1.533108 -1.023878 -0.547525 -0.266336 1.370102 -3.185837 -0.646193 -0.144420 0.195995 -1.566974 -0.889716 -0.638222 0.241058 -0.309972 -0.280257 -1.245393 0.430123 -0.629780 -0.834923 -0.246404 0.591840
Q2698008 2.436471 -0.929511 1.144119 1.173049 -1.300131 -1.167832 2.145514 -1.811709 2.124842 -0.508120 1.738983 2.754425 1.450878 -0.940157 -0.574266 -1.014257 -0.435617 -0.422858 -1.095230 -0.222828 0.091481 0.536118 -1.068467 1.062049 -1.993103 1.773224 1.394502 -0.203059 2.115687 -1.278520 0.532322 -0.766279 1.147012 0.343007 0.368276 0.253032 -0.268054 -1.100961 1.424811 0.349235 -1.149722 1.760836 -1.224385 0.788487 -0.413226 -1.878261 0.631940 -0.360911 -0.297183 -0.419853 0.583268 -0.145394 -0.894090 0.759643 0.685327 -1.164756 0.272204 0.695593 -1.188356 -0.100186 0.192751 0.033885 -1.632215 -0.719677 -0.316502 -0.319763 1.787996 0.750221 0.049474 -0.242556 -0.266583 -0.478429 0.599993 2.277789 -1.240047 -1.374245 0.162191 1.519627 1.041209 -0.404934 1.104154 -0.474952 0.688810 1.078615 -0.295500 0.259261 2.127947 -0.054124 -0.989928 -0.479267 -0.235184 0.933048 0.962404 -0.942279 -0.170665 -0.481449 -0.202947 -0.079240 -0.212106 1.016259
Q193426 -0.684027 -0.337959 0.980631 -0.717125 0.971616 -0.034971 -0.332377 -0.231406 -0.793517 -0.415984 1.337095 0.114669 0.340926 0.581185 0.499889 0.180188 0.543401 1.659873 0.918066 0.155495 2.383988 -0.012007 0.772937 0.937023 0.658503 2.211478 2.030103 -0.165772 1.009799 -1.361282 -1.981155 -0.501160 2.521495 1.498748 -0.075086 -0.351411 2.381187 -0.508536 -0.889805 -1.607794 -0.476165 1.631420 0.298114 0.861755 -0.330448 0.238853 1.207746 0.489589 0.533452 0.953353 -1.452693 -1.653304 0.602618 -0.999904 1.766572 -0.043246 -0.821434 -1.417915 -0.513630 -0.418474 -0.108260 -0.055746 1.343102 1.307624 -1.133204 2.481275 -0.198560 1.395806 1.787523 -1.216226 -0.578602 -1.430277 1.660439 0.308643 1.389933 -1.284128 1.025657 1.866635 0.530034 -2.351231 -0.305485 -0.792301 0.755235 1.317705 -2.697182 -0.367210 -0.093047 -0.176738 -1.259835 -1.017630 -0.534970 -0.501844 -0.124108 0.634466 -1.482549 1.188379 0.442464 -1.206376 -0.825347 0.863571
Q5162259 2.220438 -0.727703 1.142665 1.031315 -1.243320 -1.143452 1.836454 -1.409697 1.790131 -0.835942 1.308799 1.973847 1.719784 -1.207557 -0.446403 -0.742137 -0.697848 -0.584553 -1.171937 -0.203256 -0.139766 0.477433 -1.045222 0.626282 -1.565896 1.808326 1.338900 0.949204 1.902898 -1.883535 0.290489 -1.067394 1.338320 0.168229 -0.240294 0.452438 -0.380267 -1.661012 1.423777 0.015242 -0.718185 1.763115 -1.218048 0.793904 -1.040988 -1.439134 0.223450 -0.281492 -0.176423 -0.214828 0.177140 -0.010778 -0.691405 0.733315 0.604000 -0.981513 0.059317 0.410999 -0.043386 0.080946 0.881762 -0.177653 -1.392197 -1.572146 0.020399 -0.144821 1.051019 0.723556 -0.062157 -0.402593 -0.236002 0.271491 0.573464 2.138206 -1.288552 -1.329095 -0.106251 1.136963 1.010656 -0.489884 1.008955 -0.397692 -0.114152 0.514405 -0.200000 0.010022 1.532369 -0.391260 -1.460921 -0.736438 0.080091 0.242162 0.432966 -0.508475 0.201751 -0.118901 -0.714127 0.412421 -0.592111 1.515832
Q44473 0.373627 -1.338446 0.533846 1.272163 1.210895 -0.789246 0.263028 0.690989 0.610664 -0.927921 -0.082434 -0.536359 1.688903 0.061054 0.315488 0.983310 -0.570595 -0.150884 -0.899918 -0.796494 1.276948 0.180194 0.541019 0.365877 -1.502813 -0.573611 1.365421 -0.076712 0.096679 1.547058 -1.507294 -1.564216 -0.418977 2.286170 -1.644090 1.654435 -0.300295 -1.165895 -0.426123 -1.417384 -1.336746 -1.267838 0.523667 -0.369182 -0.848518 -2.083663 -1.029263 -0.029911 0.735309 0.229606 -0.329291 -1.149162 -2.509724 -0.378001 -1.612687 -0.160786 -0.726771 -1.284446 -1.780686 0.750554 1.332090 0.024437 -0.578330 -0.530237 0.963446 -0.413709 1.096084 1.485759 0.043302 0.154743 -1.519838 -0.299240 -0.647862 0.991330 0.484441 0.568634 -0.011632 0.839233 -0.524268 0.214918 -0.432332 0.421644 1.047505 -0.825598 0.647953 -2.152570 -1.280732 0.239085 -2.099702 -1.236521 0.024481 1.013254 -0.154775 -0.595744 -0.964215 -0.867419 -0.324087 -1.311781 -1.440123 1.035407
Q18002795 -1.580962 -1.972824 2.368066 4.031075 0.112321 -2.024606 -0.161526 -0.710126 -1.601989 -0.844020 2.080412 -0.100628 0.280771 -0.565525 -1.638142 -0.858655 -1.665202 -0.212625 0.565208 -2.432460 -0.280710 -1.691008 -1.233435 1.183092 0.955337 -2.322395 -0.232950 0.402703 -1.892896 -0.612852 -0.180514 1.400941 -2.166042 -0.224124 1.023120 1.449940 -0.507189 -1.310192 1.727867 -0.164392 0.501606 1.122777 -1.855895 1.865429 -1.727118 -2.827974 -0.844370 -0.511283 0.869603 2.216831 0.633668 -0.091602 0.367996 2.061661 1.766058 -0.730217 0.650667 0.217902 -1.490204 -0.979794 0.886107 0.775474 -0.709753 -3.428986 -0.649596 0.038243 -1.471094 -0.244758 0.238864 -1.515835 0.133935 -1.402995 1.662525 -1.060318 0.785365 0.502619 -0.907957 -1.888200 -1.938062 0.027693 -1.343669 1.630710 0.806106 -0.854364 0.715391 1.732115 -0.277988 -1.043290 -2.739241 -2.599877 0.802025 1.821749 0.378195 -0.201289 -1.259848 -0.309277 -0.543555 0.348850 -0.503093 1.725621
Q202765 -0.732048 -1.142733 0.919622 2.009961 -2.622249 0.821549 -1.178241 -0.670888 -1.802043 -0.528861 -0.200786 1.672028 2.318432 -1.582606 0.075212 -1.617572 -0.887548 -0.572425 -0.124264 -2.388717 2.341509 1.000879 -1.777959 2.997145 2.116409 -1.419987 -0.612124 -0.180245 -2.266031 -1.914540 -0.129208 0.646569 -0.468886 -0.090288 1.132835 0.880816 0.010991 -1.516517 2.020396 0.321992 -0.441494 2.295554 0.334394 -0.852395 -3.376707 -1.109819 -2.415724 0.998976 2.040207 0.980030 0.117624 -0.017192 -0.786216 1.373608 0.829785 0.601944 0.458524 -3.061422 -2.587077 -0.915573 -0.341551 0.074983 1.240244 -0.825766 0.455041 0.531714 0.167461 0.479884 1.032351 -3.682143 -1.051745 -2.121657 1.354935 -1.236328 3.270568 -0.618186 1.397670 -2.732883 -2.511476 0.304626 -1.297489 1.084022 0.785856 -0.154203 -0.290746 1.107354 1.944373 -3.717343 0.196601 -1.733142 -0.399421 2.736814 1.596549 0.071562 -2.738599 -1.050658 1.100673 -0.644129 0.958086 0.968546
Q19347291 -2.918993 -2.958243 1.080317 4.329826 -2.159744 -1.230066 -0.772398 0.225434 -0.505525 -1.663581 0.957620 2.681172 1.416047 0.737413 -0.332305 -1.933122 -1.128211 0.958239 -1.324901 -3.543954 1.847466 -1.507754 -0.211236 2.248158 -0.540434 -0.741392 1.236291 -0.563096 -1.147795 -1.367188 1.446204 0.165024 -0.550560 -0.061607 -0.033849 -0.341159 -0.900174 -1.275248 -0.207308 0.687535 -3.137380 0.295476 -1.880297 0.063255 -1.585760 -1.359192 2.958992 1.395626 1.949660 2.120975 -0.107967 -1.637949 1.635340 -0.033279 0.952281 1.528419 -0.682936 0.503057 0.136631 -1.766619 -0.109317 0.449696 -2.423851 -0.975085 1.021941 0.220738 -1.103404 0.758123 -0.107191 -1.169008 1.564735 -0.514881 2.082600 -1.269748 -0.244470 -0.381902 -0.298759 -0.839877 0.121929 -0.929766 -0.980650 0.396996 0.165280 -1.908137 0.672361 -0.264939 0.371005 -1.348866 -1.389622 -0.922765 0.579820 2.392302 0.876014 0.594335 1.141407 -1.831086 -0.677552 -0.148251 -0.851438 1.582712
Q18154496 -1.401076 -0.412099 1.138465 2.673977 -1.438340 -1.185256 -1.164965 1.024250 -0.005494 0.298354 2.092898 -1.729903 1.265122 0.191939 -1.904753 -1.380282 -1.668312 -0.729122 0.585501 -2.251503 1.067285 -1.214445 -1.205062 1.075681 -0.218356 -2.028256 0.892768 -1.932063 -0.929935 -2.277688 -0.760879 0.311895 -1.021747 0.271775 -0.206359 0.592546 -1.774231 -0.803724 1.806767 -2.325656 -0.638406 0.633406 -1.565080 1.356258 -0.073684 -2.952081 -1.812980 -1.144249 -0.446644 0.259935 0.529407 -0.296172 0.326726 0.800921 1.036622 -0.076402 -0.485157 0.793480 -1.699283 -0.368498 0.872936 0.275616 -1.512432 -1.710876 0.961424 -0.181965 -2.974541 -0.928172 0.266651 -1.259025 0.653125 -1.517177 1.246962 -0.317678 0.117450 -1.130742 -0.502714 -0.822087 0.162595 -1.649047 -1.583324 1.200021 0.847513 -0.379302 -1.754889 0.514879 0.325275 -0.785224 -1.340964 -2.400920 -0.675381 2.473947 1.333145 -0.048047 -2.723438 -0.794341 0.360555 0.535833 0.060970 1.083971
Q30 1.031739 -1.354384 0.365913 -1.152498 -0.382395 0.247121 -0.117014 0.391169 0.724363 -0.158542 1.128379 -1.451484 -0.002269 -0.150723 0.634202 0.373827 1.255277 -0.709449 0.568798 0.555058 -0.407026 -2.086061 -1.398515 -0.390100 -0.088718 1.971340 1.598258 0.297278 1.144837 -1.397027 -0.909414 -0.912676 0.519243 1.404826 1.643693 1.826343 -0.736679 -1.142970 0.790762 1.353657 2.442890 0.395504 -1.074995 0.796677 1.778116 0.686077 0.610108 0.037758 1.606156 0.090288 -0.691314 -1.706548 0.115482 0.527869 0.732289 -0.137818 -1.886981 -1.517925 -0.808099 1.805873 0.033013 -1.362164 -0.544380 1.083285 0.734586 0.589448 -0.067127 -0.421138 0.214661 0.865804 0.433244 1.573756 3.590196 -1.243427 3.278126 1.391686 0.305168 -0.737867 -1.093821 0.238032 -0.630622 -1.524974 1.149750 -2.130941 -0.516446 -0.845268 0.980681 1.941082 -1.314544 -0.671547 0.894260 1.197289 0.191550 0.069739 -1.130021 0.172543 -1.182540 0.294084 -0.972986 3.032626
Q699872 1.205441 -0.866047 1.988592 1.680824 0.745771 -0.195182 0.563320 0.333046 -0.268448 -1.484237 0.561298 -2.277868 -0.507949 1.423044 0.002466 1.291903 0.051032 1.135290 -0.833972 -0.029690 0.417868 -2.370724 -0.255364 0.573729 2.308645 0.998404 0.587296 -2.112614 0.093532 -1.572172 -0.153656 -0.851230 2.025837 1.747623 2.217817 -0.123445 -0.945917 -2.281298 -1.037064 1.146567 1.290032 -0.708353 -0.593046 -1.337520 -0.344110 0.888042 1.307644 -0.188945 0.428678 -0.449969 -2.299286 -0.358845 -0.255904 1.127817 -0.415646 1.197680 -1.927017 0.091118 1.510549 0.332291 -0.046500 -0.113830 0.471018 -1.197029 -1.804720 0.733350 0.608841 2.271080 -0.567500 -1.023716 -0.484640 0.929305 2.658031 -0.939059 1.027397 -0.606788 2.910503 -1.212322 -1.342301 -0.654265 -2.184423 -1.460026 1.193052 1.174903 -1.862891 -0.857213 -0.419143 0.555862 -0.628497 -0.739357 -0.939103 1.315815 0.988686 -0.641913 2.255920 0.122114 -2.189613 0.429760 -1.030384 1.551982
Q3330940 1.461126 0.236307 1.630558 2.205846 0.865659 -2.205963 -0.698613 0.485524 0.130559 -0.293394 2.612181 -1.569881 0.387238 0.169629 -0.464806 -2.064194 1.468427 -0.705788 0.437962 0.721258 2.803733 -0.586168 -1.242543 2.085335 -0.637931 1.668366 -0.301808 0.640002 -0.457347 0.074682 1.687602 -1.249854 -0.730720 0.190584 -1.708748 -0.308525 -0.481703 0.128211 0.525631 -0.000913 -0.415429 -0.426331 -1.364751 0.276285 -0.556609 -2.260607 1.338526 1.822451 -0.219480 1.632247 -0.949544 -0.222196 -1.824399 1.336169 0.309652 1.054969 0.569505 -2.948621 -0.853712 -0.985839 -1.503078 -1.562337 0.258162 -1.764575 0.550083 0.487011 -2.537745 -0.230823 0.722273 -0.112690 1.659428 -0.054580 1.286281 -0.441048 0.202049 1.564306 1.529189 0.728731 0.187854 -2.934747 -0.439723 0.052933 -0.305598 0.996326 -0.120600 0.026118 1.605241 -0.600565 -1.108594 -1.977314 -0.018232 1.733738 1.366977 -1.167428 1.254976 0.398119 -1.270574 -1.210934 -1.125307 1.063748
Q432473 0.744024 -0.841071 2.314063 2.646290 -1.359954 0.643579 0.347642 1.319104 0.314498 -2.279253 0.047412 -0.672188 0.984972 0.957238 -0.364163 1.341450 -0.362663 0.795434 1.072379 0.708327 1.689828 -0.759053 -0.972825 1.133069 -0.651072 0.699137 1.052545 -0.759495 0.319920 -0.187466 -0.507746 -2.534976 0.277517 1.003809 2.003315 1.006343 0.687593 -1.556077 -1.836447 -0.555061 1.066319 1.624000 0.565213 -0.894613 1.600938 -1.393093 0.184336 -0.309521 0.578188 -1.911955 -1.255022 -0.483578 0.393999 0.706084 -1.284539 -0.743040 -0.081177 0.311683 0.186705 1.009084 -0.263860 -0.583777 0.165873 0.201238 -1.123000 0.150602 1.042701 1.489765 1.852777 -0.321771 0.450752 -0.149258 0.843007 -0.674407 1.615401 -0.148754 3.109258 0.074427 -1.623056 -0.712336 -0.661433 -1.896181 0.828615 0.685910 -0.771361 0.845206 1.142996 -0.757949 -2.422905 -1.582053 -1.246373 -0.535351 -0.298935 -0.673820 -0.449950 -0.463889 0.860741 1.364652 -0.475738 -0.629137
Q18703032 -0.807542 -0.423778 0.609820 2.913355 0.220723 -0.336449 0.406618 0.267190 -0.352441 -0.610860 1.778787 -0.194493 2.913641 -1.119303 -3.167280 -1.516333 -1.097910 -1.635223 1.384062 -2.605597 1.057760 -0.681743 -0.830556 1.451442 -0.341099 -0.922471 1.343983 -0.558684 -1.308250 -1.049177 -0.589336 1.715587 -1.962353 1.177608 0.034875 -0.204057 -2.103956 -2.126998 0.384353 -0.738560 -1.853125 0.951628 0.995111 1.344530 -0.446230 -2.673293 -1.308086 -0.660046 0.689015 1.130520 1.218859 1.412252 -0.108699 0.811926 2.766779 0.485377 -1.297465 1.276327 -1.407357 -1.448175 2.086953 -0.626892 -0.929617 -1.068693 -0.640406 1.711592 -1.470860 -0.521169 0.343944 -0.072085 0.411461 -1.471200 1.286948 -0.868902 1.095318 -1.178236 -0.321925 -1.798682 0.442028 -1.150727 -1.272655 1.142554 0.689294 -0.736854 -1.398228 -0.195413 0.306552 -2.784483 -1.417542 -0.891964 -1.252377 0.779820 0.651648 0.365460 -0.911193 -0.766565 -0.228258 -0.946584 -1.104387 -0.074414
Q232737 -0.329684 -1.172378 1.417959 1.416483 -0.839088 -1.231339 0.570285 1.981108 -0.639555 0.848569 1.969998 0.448305 -1.013099 0.464927 0.449606 -2.983008 -0.324838 -0.579448 -0.223413 -0.314800 0.904191 0.818523 0.417199 2.459765 -0.041727 -0.493826 1.682448 1.666727 1.413110 -0.184786 -0.796706 0.751317 1.246562 1.550092 -2.599566 0.623197 -0.824710 -0.011330 -0.754867 -0.050527 0.122477 -0.985134 0.180135 -0.352418 -1.377562 -2.663244 1.481044 1.081668 1.073651 1.616931 1.236041 0.539907 0.419974 2.714735 2.270036 1.234223 0.054948 -1.470150 -1.513863 -0.564250 -0.823771 1.648017 0.690422 -2.083709 -0.058732 -0.382964 -1.063344 -0.191611 -0.015583 2.817569 1.517470 -1.313669 1.160285 -0.808980 -0.293102 -1.241364 1.098281 -0.763696 -0.588730 -3.038548 0.372502 -1.004132 0.211012 1.359347 0.159109 -2.615739 2.133969 -1.891355 -1.638744 -1.237731 0.864678 1.491661 -0.870247 0.131398 -0.168660 -0.860626 -1.087841 -0.549014 -0.032231 -0.382466
Q20022969 -0.261664 -0.644763 1.004029 2.825465 -1.615947 -1.630091 -3.155881 0.475161 -0.686479 -0.462070 1.781316 -1.814964 1.655673 -0.561959 -2.604705 -0.308882 -1.669190 -1.936800 1.210806 -1.468758 0.010317 -1.478416 -1.230120 0.972107 -0.253932 -2.147704 -0.721619 -0.926142 -0.909916 -1.187518 -0.093164 1.000865 -1.734326 0.362305 -0.032029 2.282178 -2.244381 -1.183726 1.052982 -1.246566 -1.207979 2.627038 -1.533968 0.257180 -1.449698 -2.350651 -0.495778 -0.139070 2.033777 0.977367 -0.580850 0.963250 0.129503 1.856515 2.594383 0.022715 -0.742587 0.705572 -2.662134 -2.023851 0.991318 0.323692 -1.394076 -2.929706 -1.251176 1.450594 -3.204998 -0.738402 -0.692153 -1.601537 0.148572 -1.189392 2.911309 -1.635184 0.780820 -1.657558 -0.521213 -2.512207 -0.281433 -1.411312 -2.172338 1.355071 1.852469 -0.667976 -1.242256 0.586570 -1.555982 -2.682609 -1.853912 -2.372168 -0.622477 1.592099 1.602306 0.058423 -1.879685 -0.578033 -0.249446 -0.044714 0.739225 0.909960
Q2669947 0.578015 -1.427406 0.083832 1.712297 1.415594 -0.143520 0.434233 0.678039 0.915795 -1.274064 -0.251162 -1.090592 1.896984 0.338411 0.041712 0.279647 -0.531145 0.423928 -1.194158 -0.878458 1.207690 1.174358 0.025210 0.641502 -1.321567 -0.111018 1.791449 0.430688 -0.725077 1.894460 -0.828138 -0.746813 -0.654605 2.105964 -1.098488 1.247023 -0.404357 -1.108313 -0.194761 -1.349982 -1.556412 -1.464284 0.937641 0.007197 -0.752203 -2.404596 -1.176272 0.667439 0.527216 0.759979 -0.121241 -1.296795 -2.246214 -1.077543 -1.515985 -0.465692 -1.189368 -0.443667 -1.920482 0.673141 1.060767 -0.258578 -0.426612 -0.194376 1.412974 -0.281400 0.908185 1.412486 -0.014486 0.223849 -1.665283 -0.321269 -0.954488 1.066149 0.021305 0.844126 0.206258 1.426963 -0.848250 0.630476 -1.059534 0.277526 1.214672 -0.469085 1.257336 -2.620613 -1.793626 0.683548 -2.041123 -0.579882 -0.045426 1.263946 -0.443965 -0.656292 -1.230328 -0.553488 0.036671 -1.360124 -0.787423 1.906175
Q239411 1.002849 -1.015422 2.630209 2.214544 -1.686998 0.788954 0.739319 1.184143 1.195949 -1.615844 0.098209 -0.726384 0.846896 -0.569899 -1.650512 0.760016 -0.384936 1.099166 0.360469 2.469532 1.390588 -0.207375 -0.608356 2.177135 0.351754 -0.460602 1.481437 -0.699670 -1.100140 -0.161896 0.535888 -2.736881 -0.899685 1.275437 2.262507 0.208886 -0.299410 -2.050402 -1.490978 -0.142328 0.572833 0.894091 0.471437 -1.942440 0.837446 -1.905149 1.557893 1.243293 -1.022002 -1.772117 -0.360982 -0.920711 1.304901 -0.123992 -1.272467 -1.021085 0.077113 0.304867 -0.580489 1.594767 0.563870 -0.687976 0.141730 -0.181801 -0.236823 0.444660 2.364949 1.289053 2.828049 0.117784 -0.161377 -0.242471 0.420298 -0.722943 1.578377 -1.259509 3.155337 -0.681897 -1.468977 -0.323464 -0.816405 -2.742254 -0.387396 0.351203 -0.635164 1.035814 1.352948 -1.606012 -2.118230 -1.032288 -1.202036 0.918944 -0.670693 -0.186542 -0.507582 -1.781435 0.399466 1.070668 0.601462 -0.173706
Q1816737 0.943567 -1.178515 0.620759 2.381871 1.168473 -0.141728 0.992840 -0.301145 1.473033 0.244690 -1.211766 -0.889836 1.414178 -0.746382 -0.011965 -0.504626 -0.300548 -0.290187 -1.391032 0.713316 1.356155 0.004775 0.909526 0.555657 -1.580403 -1.100415 1.590555 0.373237 -1.159226 1.293876 -1.718623 -1.969948 0.219046 2.397154 -1.183124 2.357370 0.447847 -0.067748 0.466210 -0.968792 -0.697393 0.329223 1.488856 0.798753 -2.027310 -1.961958 -1.364799 -0.176920 -0.526584 -0.246207 -0.457674 -0.938870 -2.981661 -1.021536 -1.454558 0.714884 -1.399406 -2.029132 -1.423937 -0.105318 1.527294 1.219198 0.099425 0.643748 -0.499899 0.267163 0.868739 1.246631 0.647843 0.014251 -2.964501 -0.647828 -0.786059 1.318472 0.232399 0.446690 -0.105287 1.286292 -0.545177 -0.432979 -1.239297 0.060785 3.174085 0.031897 0.870950 -2.057033 -1.700814 0.132297 -2.894483 -1.240077 0.854639 0.981132 -0.670885 -1.694746 -0.482864 -1.947514 -0.678644 -1.931391 -2.125929 2.322965
Q242351 1.212445 -0.940856 2.383352 2.239758 -1.899421 0.695492 0.856687 1.240632 0.369226 -1.811105 0.049651 -0.706106 1.311005 -0.183011 -1.569331 1.215086 -0.076027 0.353001 0.452820 2.103951 2.391767 -0.104910 0.267500 2.004247 0.172194 -0.135641 0.687425 -1.177356 -0.470309 0.176782 0.340684 -2.725835 -0.223484 1.266636 2.170036 0.022130 0.192858 -1.807833 -2.333466 -0.150280 1.599858 1.324907 0.742414 -0.913714 0.782799 -1.691628 0.374279 0.147747 -1.137313 -2.198080 -1.405450 -0.668068 1.511597 0.221236 -1.398945 -1.263181 0.502894 0.339497 -0.152855 1.397673 0.065080 -0.411215 -0.018804 -0.062632 -0.493958 0.145378 2.202584 1.707881 2.228086 0.292838 -0.154363 0.189341 0.653659 -0.918968 1.804048 -0.468038 2.736941 -1.113547 -0.871457 -0.028947 -0.899376 -2.689615 0.744945 0.556986 -1.629909 0.876054 2.016854 -1.050019 -2.662596 -1.176752 -1.775879 0.131349 -0.184481 -0.249309 -0.118264 -1.122947 0.461416 1.743984 -0.202738 -0.299887
Q22336745 1.998113 0.352650 0.806628 1.762751 -1.965842 -1.378898 0.913547 -0.038223 2.294865 0.413711 1.357495 -0.071820 2.115990 0.665268 -0.444163 -0.219579 0.188692 -0.346693 -0.891412 -1.184780 -1.142591 0.638833 -1.124218 2.844170 -1.159291 2.073157 2.192233 0.266838 0.338218 -1.544889 -0.373356 -0.559530 0.687618 -0.089903 0.167766 -1.089849 -0.244155 -1.315761 0.972139 0.196071 -0.539867 2.760094 -0.652814 -0.601807 -0.891335 -0.568622 1.611245 1.283828 1.387306 0.806431 -1.001705 0.087512 0.057422 0.284902 0.435419 -0.188400 -0.253670 0.272224 0.562402 -0.716724 -1.202896 0.989122 -1.131852 0.308781 0.802020 -0.779878 0.321647 1.623770 -0.622729 0.461338 -0.679618 -0.293804 0.206843 1.777626 -0.581709 -0.907624 0.787897 0.175769 -0.352089 -0.431009 0.012167 0.785073 1.565962 0.261384 0.235594 -1.608247 0.461877 -0.281967 -0.977856 -0.515841 -0.957247 0.537599 1.364249 -0.099837 0.872487 0.331887 -1.518446 0.861021 -0.488120 0.414982
Q17092711 1.547425 -0.236327 0.753471 1.901536 0.599841 -0.050558 0.553253 1.070207 0.777392 -1.286000 0.838518 -2.339029 -0.834446 1.877059 0.181770 0.683028 -0.114447 0.524625 -0.432330 -0.920587 -1.295609 -2.235567 -0.028337 1.266259 1.835771 1.260454 1.032552 -1.121375 -0.800631 -2.361621 0.243505 -0.838617 2.388507 0.947238 1.413766 0.036797 0.763925 -1.762438 -1.526016 0.295480 1.694687 -0.262842 0.299046 -0.685737 0.506741 0.804740 0.264304 1.733112 0.011976 0.021787 -2.185909 -0.741698 -2.310912 -0.450685 -0.701254 -0.031791 -1.408640 0.472058 0.948052 0.307510 -0.972142 0.154112 0.141474 -0.593909 -1.188949 0.850652 0.526016 1.546424 -0.025941 -0.818684 -0.611749 0.968237 1.388692 -1.321461 -0.088374 -0.281925 0.899452 -0.067051 -0.084378 -0.365774 -2.364279 -0.036760 2.248766 1.177206 -1.042603 -0.107298 0.486470 -1.033799 -0.262276 -1.283153 -1.561851 1.389781 1.112012 -0.424974 2.439669 -0.005227 -1.296611 -0.837545 -1.660234 1.794952
Q362 0.941317 0.795530 -0.978600 -0.853562 0.027754 1.797487 -0.307208 -1.292808 -0.057777 -0.914013 0.322906 -1.836429 -0.297201 -1.076139 0.523926 -0.324946 -1.216724 0.400982 -2.017055 -0.460905 0.345238 -1.001953 -0.412160 0.174371 0.062193 1.936973 1.081526 -0.764700 2.403446 -0.997465 -0.954098 -0.574330 1.597726 0.706492 -0.314198 0.969247 1.275350 0.410190 0.507674 0.930210 1.520512 0.162093 0.312600 -0.133626 0.559459 0.519719 0.906184 0.236784 0.985490 0.018529 0.691916 -0.131560 -0.506149 -2.030095 -1.881178 -2.654930 -1.664063 -0.020528 0.804100 0.363090 0.444394 -0.143310 -0.310240 0.084227 -0.493515 -0.109578 1.029820 -1.433982 0.288815 3.007867 0.206500 0.548514 2.733961 0.471284 1.939726 0.788116 0.267039 -2.865990 -0.623885 -1.707284 -0.428888 0.131066 -0.404007 -2.503284 -1.108538 -1.015766 -0.837235 1.882129 -1.747170 -0.979483 0.502109 0.386304 0.923633 -1.661700 -0.713762 1.337237 -1.826294 0.736408 2.348596 0.953370
Q22073973 1.156344 0.163997 0.881467 2.146629 0.734077 -1.788976 -0.426958 0.029311 0.279623 0.210185 2.437500 -1.579225 0.727428 0.722671 -0.784941 -1.628772 1.500980 -0.382429 1.224870 0.504119 2.286210 -0.479178 -1.307698 2.224516 -0.240060 1.732608 0.210351 0.644984 -0.286609 0.042013 0.984842 -0.698045 -0.945976 0.001861 -1.057395 0.073514 -0.011853 0.079107 0.072641 -0.481461 -0.259332 -0.148783 -0.990649 -0.423784 -0.340089 -2.327333 1.381955 2.155766 -0.269727 1.082889 -0.650826 0.038956 -1.953129 0.402989 -0.265692 0.389698 0.430642 -1.736854 -1.013704 -0.608528 -1.392154 -1.066410 -0.101780 -1.505308 0.012731 0.304612 -1.484990 -0.173097 0.558609 0.138088 1.088756 -0.064535 0.672756 0.010012 -0.169533 0.827391 1.109903 1.413455 0.104490 -2.559699 -0.642933 0.396354 -0.193341 0.909769 0.234893 0.105680 0.940542 -0.063493 -0.285145 -1.713495 0.364191 0.968223 1.043297 -1.029350 1.602854 0.257814 -1.039949 -0.896131 -0.891388 0.690527
Q6294 2.126477 -1.690372 1.747518 1.295137 0.072412 -0.378137 0.197579 -0.319147 1.384580 -1.740075 0.417270 -1.715813 -0.484660 0.150376 -0.457861 1.326501 0.641026 1.641650 0.302959 0.862224 1.482470 -1.641900 -0.265581 -0.963052 0.763046 0.847514 0.600867 -0.266995 -0.152265 -1.625698 0.374942 -1.467618 1.597266 2.086460 2.102359 -0.711582 -0.667696 -0.888019 -0.382046 -0.637336 0.976045 -0.114015 0.540159 -0.146604 0.623386 -1.015728 0.313127 -0.560313 0.831307 -0.598483 -1.375413 -0.009767 0.319237 -0.162543 0.116241 1.397483 -2.181724 -1.234845 -0.263296 2.098147 1.018680 1.296566 1.948146 -2.034211 -2.376623 -0.971552 0.056036 1.299283 0.262870 -1.291479 -1.622182 0.853481 2.557141 -0.133805 2.305719 -1.202901 3.535135 -1.173735 0.198224 -1.875602 -1.831363 -3.726099 -1.929379 1.512836 -1.598561 -0.304733 -0.586370 1.347397 -1.490411 -1.614488 -0.844980 0.945186 0.207418 -0.352642 0.996605 0.922038 1.203894 0.398243 -0.825790 1.938715
Q19020 -1.571429 -1.376342 0.028096 0.277581 -1.601255 -1.589434 -2.510492 0.090063 -1.373657 -0.524009 1.129980 -0.266214 0.824741 -2.173087 -1.533620 0.136368 -0.504682 -1.819284 0.183854 -0.000891 2.029317 -0.817093 -0.639488 0.924314 -0.690329 0.412692 -1.022756 -1.257146 -2.777317 -2.818190 0.515485 1.502719 -1.811802 0.396971 -1.130300 2.489347 -1.873028 -1.465729 -0.310937 1.028099 0.191599 2.615119 -1.203970 1.222671 -1.698484 -1.931556 -3.307112 0.440922 1.802049 2.655551 -1.190022 -0.121862 -1.106986 0.342678 1.375713 0.224894 0.034825 -0.252098 -0.855552 -1.024458 0.864880 0.317225 -0.704850 -3.349044 -1.274603 1.131417 -2.967797 -0.072527 -1.131278 -2.021818 -0.366857 -0.423062 2.950002 -0.972824 1.453896 -0.342953 -0.730724 -2.086350 -1.235669 0.087630 -0.375813 -0.088649 0.266961 -0.129502 -0.804913 0.893145 -1.203123 -3.154209 -1.158352 -3.035316 -0.974985 2.188510 2.090252 -1.172077 -3.363861 -1.612651 0.434779 0.431464 1.979302 1.746118
Q4289752 0.667491 -0.180830 0.829020 -0.153266 0.309953 -0.310109 -0.092579 -0.224981 0.646834 -0.811797 1.218919 -0.348757 -0.014784 0.303734 -0.469177 -0.376591 0.393399 1.153308 -0.488504 -0.526070 1.129861 1.414405 -0.771083 -0.235309 -1.058307 0.199802 -0.424347 1.144701 1.133559 0.704364 -1.986475 0.184027 0.817775 0.045082 0.020416 1.509221 1.954215 0.941054 -0.520701 -0.855819 -0.589467 0.729106 -0.187566 -1.927263 0.035324 0.207997 -0.535461 1.367743 -1.250242 0.000391 0.567920 -1.912773 0.183437 -1.208962 -0.158403 -0.359671 -1.659031 0.376367 -0.957298 0.036324 -0.238578 -0.840841 0.219141 -0.096039 -0.082655 -0.453305 0.069375 -1.285368 -0.863587 0.248978 -0.235581 0.395957 -1.141307 -0.050480 -0.693968 -0.074061 -0.839614 1.283446 0.487863 0.338347 0.509416 -0.673575 0.932965 0.092339 0.051780 1.176873 0.426539 -0.531744 -0.227087 -0.675890 -0.202409 -0.385365 0.561618 -0.071165 0.271185 -0.969556 0.615987 0.642871 -1.308539 0.076722
Q2036942 2.682175 -0.696793 0.697023 1.451630 1.318101 -1.227474 0.783614 0.062802 0.348108 -2.722988 0.943352 -0.987990 -0.418557 1.690762 -0.728579 1.369983 1.440046 -0.043159 -1.257595 1.452887 -0.380583 -1.546654 -0.520487 -0.576719 -0.341187 0.032607 1.898981 -3.092173 0.650904 -1.529200 1.014870 -0.769952 1.085056 2.153101 1.711841 0.245553 -0.392195 -1.757918 -1.256758 0.427647 0.682920 1.314950 0.070796 0.915383 2.255227 -0.522307 0.537727 0.721242 0.393406 0.412550 -1.097589 0.167313 -1.426874 0.238816 -0.250161 2.016534 -2.532727 0.651023 -0.166513 -0.201378 0.593834 0.029103 0.592788 -0.027614 -1.381369 0.632680 0.762261 1.924327 0.867715 -1.311847 0.029565 2.152865 1.459759 1.166233 1.558841 -0.992467 1.705800 1.192657 -0.072061 0.200518 -1.847877 -0.249229 0.577785 -0.168784 -1.257788 1.809983 0.518711 -0.670299 -0.580289 -1.319343 -1.574480 0.702340 -0.824305 -1.590879 1.278841 -1.543907 -1.350264 0.929662 -0.855316 0.369337
Q208026 -0.278623 -2.138638 2.420504 4.170058 -0.335687 -1.761050 -0.355787 -1.717222 0.068189 -1.645364 2.539271 0.457278 0.489906 0.166140 -2.532769 0.315087 -1.903822 0.791437 -0.284281 -2.183625 -0.628908 -0.293327 0.121938 1.457780 0.411462 -3.084892 -1.241139 0.571787 -2.202975 -1.689731 -1.544922 -0.937772 -0.865082 -2.674446 -1.576717 2.108456 -1.153893 -2.422454 2.402896 2.200279 0.089561 2.709625 0.020977 1.741450 -2.021513 -3.297756 -1.579460 0.670156 1.781758 -0.297230 1.044903 -0.525914 -0.596910 3.874799 1.266319 0.467625 1.999730 -1.242285 -2.453255 -1.826853 1.724628 -0.845598 1.120220 -2.033416 -1.504471 -0.232926 -1.626425 -0.223248 -0.608123 -1.889945 -0.420064 -2.601795 0.053088 -0.788447 1.126405 0.535330 -0.726549 -1.822742 -1.311682 -0.722371 -0.956482 -0.566321 -0.897697 -2.392648 -1.138566 1.025780 -0.241146 -1.077559 -4.617724 -2.535495 0.670091 0.877723 1.737700 0.617884 -0.701837 -3.133620 -1.138930 0.525909 -0.357088 3.166425
Q17004294 1.254521 -0.608691 0.582003 1.964860 0.389542 -0.179351 0.517089 0.898578 1.170306 -0.882541 0.578738 -1.814356 -0.675127 0.806215 -0.385024 0.436938 -0.232289 0.951593 -0.361599 -0.890557 -1.248965 -2.233883 -0.106008 1.066942 2.163228 1.282677 0.905765 -0.284889 -1.086280 -2.186759 0.808311 -0.451000 2.355733 0.977870 0.975844 -0.414807 0.657076 -1.199636 -1.230287 0.254435 1.510083 -0.436802 0.987493 -1.408389 0.318508 0.753692 0.213672 1.770641 0.582200 0.012396 -1.834530 -0.578575 -1.390200 0.168406 -0.790502 -0.178852 -1.889069 0.094471 0.102106 0.391823 -0.674386 0.406784 0.686369 -1.459426 -1.422757 0.672846 0.266815 0.705785 -0.449123 -0.991795 -1.014216 -0.009005 1.742651 -1.468229 -0.136653 -0.977251 0.519034 -0.282277 0.088078 -1.043091 -2.603204 -0.172551 1.657319 1.355877 -0.728111 -0.543148 -0.260346 -0.564298 -0.323511 -1.111604 -1.219399 1.787866 1.905271 -0.189766 2.810339 0.477912 -0.430262 -1.463154 -1.757060 2.044531
Q15270647 -0.025232 0.763144 -0.504223 3.838973 -0.865619 -2.324846 -0.387307 0.175133 -0.137113 -0.653086 0.407918 1.781931 1.168342 1.098077 -1.142899 -1.341856 -0.689912 0.244043 0.124996 -2.203852 2.129597 -0.500120 0.203267 1.058828 -0.488222 1.463442 0.423312 -0.435182 0.334510 -0.538398 -1.056414 1.083913 0.452422 -0.963163 1.720000 0.957135 0.627025 -0.820967 -0.567105 1.873086 -4.108974 -0.785331 -0.124172 1.794811 -0.201964 -1.093385 1.392354 1.511186 0.738711 1.374219 0.428329 -2.301018 1.002751 -0.832547 1.651505 -0.310174 -1.138768 0.859537 -1.641318 -1.851515 0.755504 0.624959 0.865107 -2.136094 -0.749030 -0.018833 -1.285322 -0.313012 0.767485 -0.778358 1.827518 -0.436677 -0.008538 1.339173 0.332577 -0.286489 1.410697 -0.076975 0.903397 -0.828769 -1.516329 0.447502 1.531921 -1.714375 0.638428 -0.558913 0.143696 -1.841782 -1.291115 -1.781449 0.545573 0.693771 0.849911 2.246141 -1.592163 0.036539 0.341992 -0.469513 -0.880789 1.347815
Q29328 0.027054 -0.329570 0.028089 2.398697 -0.739814 -0.215635 -0.058982 -0.377742 0.581335 -1.346794 1.799064 -1.082356 3.289666 -1.151849 -2.671305 -1.620276 -1.393688 -1.757607 1.775349 -1.939718 -0.040264 -0.464606 -0.864913 2.311107 -0.123564 -1.442943 0.633170 -0.879275 -2.221415 -0.921841 -0.337382 2.074939 -1.666297 1.579218 -0.979425 1.638332 -2.882315 -2.980180 0.779741 -1.025247 -3.101911 2.680696 1.488862 0.254129 -0.213344 -2.648123 -1.719574 -0.329370 1.336979 -0.051773 1.205425 1.903156 -0.018159 1.133873 3.258394 0.764560 -0.799989 -0.004371 -2.400631 -1.699717 2.650877 -0.602982 -0.111805 -1.484813 -0.589836 2.418029 -1.080712 0.922955 0.819611 -0.166859 0.988433 -1.904346 1.644510 -1.872198 1.664721 -1.469632 -0.389300 -2.585910 0.315970 0.202073 -1.034329 0.362420 -0.563144 -0.736257 -1.330724 0.169745 0.657799 -3.033477 -0.793635 -0.464975 -1.422784 0.072390 0.730370 0.253603 -1.748380 -1.777836 0.243407 -1.997926 -1.000681 -0.492156
Q11571 -0.190697 -1.071391 1.154609 1.160692 -3.892830 0.961560 1.326601 -1.413812 -0.958330 -1.899107 0.283282 0.468586 0.461503 1.364759 -0.765269 0.761500 1.496061 1.456120 0.848688 -1.010838 1.932997 0.079155 1.093911 -0.472000 -1.973314 0.710281 1.839131 0.113669 1.487469 0.445383 -1.149938 0.240647 1.014709 -0.009168 -1.300647 2.566039 0.623890 -1.319979 0.823128 -0.674086 0.612063 0.870131 0.627414 -0.103972 -0.624540 -0.449419 1.164918 -0.386913 -0.015510 -0.042227 -1.486108 -0.290708 -0.331138 -2.176490 1.161668 1.443218 -0.695806 -1.818918 -0.353840 0.242064 -1.105591 0.511605 -0.047788 -1.093015 -1.753678 -0.156344 0.273649 0.555755 1.602279 -1.389056 1.235720 0.772295 0.298597 0.120949 -0.172144 0.765292 -0.163218 -0.610014 0.296745 0.805728 0.889630 0.043467 0.116504 0.039037 -0.337568 -1.527022 -0.072956 -0.144016 0.396196 -0.350986 0.056526 0.568958 -1.906453 -0.749806 -0.349725 0.197373 0.701019 1.550795 1.707182 1.689128
Q76 1.123590 -2.357236 1.213777 0.325695 0.005521 -0.795714 0.919669 -0.234295 -0.377550 -1.943281 -0.126856 -1.685246 0.729680 0.541777 0.558094 0.893991 0.935487 0.661424 -0.512125 1.344882 1.132403 -1.603052 -0.848967 -0.562700 1.053977 1.601513 1.077653 -1.207377 1.945027 -1.542493 1.776554 -0.527660 1.757161 1.477272 2.449671 1.607762 0.125139 -2.257469 0.899229 0.148934 1.251319 0.200912 -1.835650 -0.417003 1.302595 -0.588706 0.916762 0.786413 2.174558 0.142043 -1.643129 -0.879463 1.316490 0.280566 -0.449170 1.583990 -2.091872 -2.312621 -0.539539 1.182406 0.783247 -0.249014 1.886590 -0.624652 -0.263571 -0.301491 0.149301 -1.212227 0.817684 -2.733820 -1.796628 1.370410 3.569009 0.065049 2.168929 -1.290609 4.159101 -0.712772 -0.080981 -0.384044 -0.986647 -1.715687 -0.280336 0.312543 -0.986668 -1.028175 -0.622766 1.593403 -3.028377 -0.137699 0.303787 1.015396 0.035598 0.759050 1.236485 0.597815 -0.324515 1.622149 0.049464 1.693996
Q919177 2.217351 -0.994339 1.378841 0.762198 -1.344608 -0.955077 2.155566 -1.923764 1.881652 -0.387192 1.844875 3.140350 1.559883 -0.412903 -0.424503 -1.385634 0.057080 -0.063258 -1.315473 -0.396537 -0.059892 0.904862 -1.093163 1.044147 -2.050671 1.828653 1.356160 -1.084136 1.877850 -1.039097 -0.083889 -0.800486 1.285331 0.392554 0.190094 0.669480 -0.237788 -0.999470 1.346615 0.703023 -1.086421 1.729443 -1.354625 0.587659 -0.636357 -2.157785 0.543386 -0.675548 -0.546286 -0.712563 1.188571 -0.412925 -0.892043 0.890236 0.467329 -0.947767 0.518662 0.893903 -1.700684 -0.403757 0.753237 -0.040021 -1.575379 -0.331541 -0.212547 -0.089615 2.124162 0.434730 0.089772 -0.104097 -0.105153 -0.728587 0.267583 1.865957 -1.433951 -0.934217 -0.145148 1.605506 0.803606 0.228340 0.649975 -0.480569 1.130816 1.041877 -0.244412 0.279267 2.536937 0.028595 -0.576450 -0.729005 -0.384067 0.926076 1.162387 -1.213155 -0.533259 -1.423105 -0.311509 -0.425605 0.141367 0.544700
Q20714712 -0.105329 0.505290 1.087982 3.336414 0.153443 -2.281242 -1.520108 -0.481021 0.684173 -1.230061 2.520200 -0.220199 0.274884 -1.185530 1.088691 -3.102239 -0.526186 1.084310 -0.804058 0.201445 -0.994350 1.493634 1.184862 2.147053 -0.122017 0.888563 -0.379331 0.251571 -0.833521 -0.052990 -0.647891 1.455230 0.607107 1.434398 -0.354985 1.398348 -1.122810 0.181019 0.517840 -1.054946 -0.456269 -0.971248 0.959078 -1.161934 -0.328977 -0.424084 -0.324787 -0.083567 0.709806 1.689494 -1.548418 0.345028 -1.165495 0.804322 0.776555 0.931230 1.791216 -0.629602 -1.573192 -0.819830 0.472727 1.030070 -1.283356 0.059925 0.172422 -0.751679 -0.465109 0.211545 2.527147 1.699603 0.564764 1.607955 0.781687 0.804523 1.287202 -0.150090 1.510728 1.117205 0.466809 -1.464427 -0.921652 -0.901125 -0.246564 -0.240367 1.634405 -0.793670 0.468045 -2.183971 -1.258273 -0.959473 -0.059016 -0.467239 1.902779 0.844038 0.874250 -1.456107 -1.373656 -0.173317 -0.930592 0.938075
Q1631090 -2.179718 -2.788511 1.407945 3.319799 -1.098706 -0.376205 -0.528587 0.384505 -1.218435 -1.795503 0.830724 2.501514 0.611391 0.858555 0.616856 -1.050439 -0.709401 0.970301 -1.157446 -2.621320 1.326761 -2.072037 -0.362259 1.410469 -1.271951 -0.694745 1.290022 -0.556960 -0.605162 -0.813532 1.688202 -0.510590 0.102800 0.440142 -0.887276 -0.716810 -0.440316 -0.914523 -0.062116 0.068596 -2.357829 -0.326805 -1.612138 -0.561660 -1.278782 -0.332292 2.584244 0.189504 0.822017 2.035882 0.640609 -1.399346 1.357677 0.497851 0.334332 1.665382 -1.011757 0.982980 0.207189 -1.016837 0.306193 0.188117 -1.696422 -0.864093 1.241529 0.123918 -0.126921 0.435965 -0.105577 -0.841469 1.229759 -0.504625 1.629658 -1.199480 -0.115321 0.030540 -0.624898 -0.634904 0.606673 -0.138811 -1.751461 0.464078 -0.316986 -1.571631 0.903826 0.061015 0.953828 -0.842692 -1.590753 0.113160 -0.304046 1.588984 1.077882 -0.553699 0.047824 -1.317050 -0.805940 -0.257413 0.092521 1.512573
Q361 0.806470 -0.861024 -1.247675 0.163586 -0.117129 1.818879 0.094040 -1.989515 0.346112 -1.040055 -0.787852 -0.859057 -1.222888 -0.888211 0.772638 -0.161744 -1.315026 1.333101 -0.945818 -1.142880 1.147624 0.117145 -0.881363 0.029748 0.318827 2.484708 0.962819 0.007995 1.138072 -0.921990 -1.570889 0.065716 0.293788 0.001280 0.409249 0.839393 0.703505 -0.847580 0.839787 1.330157 0.824918 -0.055649 -0.110359 0.362051 0.438133 1.498712 1.436700 -0.051512 0.594906 -0.980808 1.137938 -0.554246 -0.491231 -1.602267 -1.344213 -2.173677 -1.190559 1.588429 0.082973 0.782182 -0.127908 0.066146 -0.172852 -0.420755 -0.464301 -0.751034 0.845289 -0.608131 -0.060235 2.058770 -0.610681 0.473727 2.103908 0.778407 2.556086 1.549692 -0.120850 -2.671360 -2.541245 -1.583013 0.489010 -0.781450 0.135681 -1.613497 -0.528395 -1.061515 -0.277269 2.671264 -1.567665 -1.059578 0.179568 -0.733828 1.970913 -2.069433 -1.212152 1.082487 -1.683321 0.960447 1.838657 -0.189188
Q183 0.011493 0.392088 -0.310878 -1.111629 -1.281889 0.174363 -1.578019 -0.079508 -0.437999 -0.714611 0.353628 -2.421465 -0.243972 0.091192 1.278587 0.014934 0.226257 -0.505131 0.616406 -0.479911 -1.622284 0.921419 -2.031180 -1.207869 -0.002370 1.028018 -0.084167 -0.492965 3.082784 -1.205131 -0.438988 -0.594639 -0.091751 -0.079252 1.060283 0.583028 0.119082 -0.748982 0.093537 0.473213 2.878283 1.092623 0.606717 0.819083 1.696652 2.848737 1.059467 1.893104 0.430652 -0.424872 -0.385221 -0.034091 0.046806 -2.145226 -1.089646 -1.071898 -0.536473 -0.379134 -1.305523 0.891608 -0.927874 -1.213021 0.635297 0.008471 0.524761 1.211617 1.143652 -0.327908 0.088343 1.563569 -1.279099 1.451967 3.306668 1.015241 3.283646 0.486850 -1.269612 -1.080485 -1.857905 0.264978 0.292686 -1.393534 1.819826 -3.214372 0.003934 -0.315634 0.423807 2.362888 -0.293718 -0.925744 0.708943 1.634750 -0.071241 -0.443355 0.019680 1.340508 -0.967408 1.021826 -0.480609 1.653421
Q359442 0.814155 -1.524744 1.454236 1.655873 1.018036 -0.310541 0.566315 -0.135857 0.829579 -1.576977 1.106980 -1.077955 -0.488601 -0.382753 -2.008366 0.975435 0.894382 1.166480 -0.763565 1.088895 -0.496205 -2.384217 -0.342948 -0.283856 0.847992 0.614174 1.896777 -0.756683 0.160344 -1.973460 0.676587 -1.012163 1.406646 2.069327 0.376983 0.099465 -0.941798 -1.153641 -1.634205 0.456334 1.308622 1.121765 0.404331 -1.796333 0.439676 -0.151158 -0.251930 0.039569 1.130708 -1.293467 -0.715960 -0.302968 0.850972 0.767429 0.478721 1.389219 -3.209231 -0.921057 -0.499982 1.454802 0.219568 -0.630969 1.199202 -0.770172 -1.397098 -0.850149 -0.318452 1.522925 0.471514 -0.915666 -1.221830 1.113141 1.289145 0.288484 2.121288 -2.183761 1.196473 -0.558666 0.472910 -2.319103 -1.857943 -1.451021 -0.822772 0.497189 -0.938416 0.895774 -0.648569 0.548050 -1.122713 -2.183820 -0.934809 0.948428 1.982962 -0.941258 1.064152 -0.528464 -1.180479 0.263959 0.118180 -0.153976
Q2395 2.562025 1.095886 0.071916 -2.870462 2.044731 -0.007119 -1.026927 -2.728259 -1.733213 0.412536 -0.388476 -0.435906 -2.257154 0.110463 0.578593 -0.619268 2.427687 -0.182580 0.108822 -0.150944 0.441873 -2.255027 -0.996889 0.157406 -0.700333 2.406018 -1.233698 1.335639 2.095382 1.868304 -1.047555 1.133010 -1.198234 -2.275270 -2.306562 1.070192 0.990952 -1.268662 -0.302263 0.461504 1.126893 1.442969 1.531879 -2.636027 -1.976164 0.677670 0.663736 -0.474161 -2.275172 0.157184 0.587606 -1.284204 0.439496 -1.382848 0.938230 -0.261433 -1.950768 0.316593 0.396801 1.141755 -0.740562 2.075976 -1.870392 -1.028765 -0.919682 0.638009 -0.260669 0.355938 -0.689989 1.156813 0.043141 0.465073 2.645320 0.251672 0.671337 -0.403843 -1.696658 1.355650 1.966660 -2.063846 2.122424 0.508061 0.636077 -0.265357 -1.404365 0.426317 1.962476 2.011913 -0.761766 -0.603950 -0.093828 -0.356272 0.848601 -0.818949 1.796192 1.272854 0.241943 0.150756 -1.621155 0.716190
Q236861 -0.348884 0.942281 0.255134 2.539053 -1.043418 -1.499852 -1.260451 -0.194377 0.975588 -1.298792 2.600393 -0.143309 1.795507 -1.504256 1.063497 -1.785875 -0.536695 0.980641 -0.380878 0.644501 -0.426587 0.984944 0.659735 0.708714 -1.088482 1.547362 -0.720505 0.265616 -1.790144 -0.543091 -0.942495 0.659980 1.176252 1.915970 0.643018 0.908559 -1.290431 -0.161581 -0.006795 -1.610746 0.542642 0.071952 1.196054 -2.006532 -0.164424 0.365535 -0.624212 0.222442 0.152685 0.990988 -0.481689 0.094621 -0.446252 0.805586 0.903636 -0.003418 1.500968 -0.842823 -1.372873 -0.763498 1.741014 0.858728 -0.359549 0.353084 -0.652969 -0.552109 -0.296457 0.253680 1.704084 1.207929 -0.528344 0.600563 0.557268 0.962452 1.155939 -0.621743 1.166799 2.361093 -0.165765 -1.256699 -0.944805 -0.797290 -0.082641 -0.068824 0.889835 -0.331011 0.923605 -1.836508 -1.302401 -0.956195 0.519049 -0.838474 1.631408 0.219712 0.098929 -2.123814 -0.261480 -0.047362 -0.711676 0.963596
Q19347583 -1.673162 -0.437110 -0.346433 1.281164 -1.953038 -1.092272 -1.621477 0.793302 -1.705362 -0.470276 2.131011 -0.041513 0.110846 -0.375598 -2.636365 -1.277046 -1.941719 -1.269668 1.033977 -2.251378 1.503949 -2.040343 -0.150941 1.644017 -0.392371 -1.774628 0.426102 -0.730507 -1.160212 0.035663 -0.563991 -0.899690 -1.940845 -0.448427 -0.543274 0.627186 -0.427261 -1.295663 1.866955 -0.529195 -1.409691 1.556504 0.665391 2.161500 -0.830151 -3.236323 -0.490374 -0.093401 -0.264412 0.604264 1.948840 1.282083 0.596418 1.432619 1.499632 -2.120933 -2.013636 0.350968 -1.064890 -2.576369 2.015374 -0.297565 -0.110494 -2.420874 -0.352966 1.735297 -0.569631 -1.058355 0.164105 -1.377499 -1.036273 -1.158089 2.581599 0.034117 1.418259 -2.106417 1.204581 0.440190 0.432264 -0.932964 -1.553170 1.389255 -0.094279 -0.374774 -1.427183 0.375812 -0.349839 -1.457671 -0.805904 -1.144696 -0.796513 3.095271 1.701183 2.068268 -0.063106 -0.332502 -1.822274 -0.405727 0.335330 0.811283
Q615 0.046710 -1.264364 1.264495 1.368730 -2.959039 0.354631 0.726672 -0.718541 -1.448321 -1.915206 0.185881 -0.060404 -0.000824 1.111044 -0.378393 0.576142 1.370416 1.377084 1.349192 -0.702118 1.333638 0.390795 1.235070 -0.422877 -2.331474 0.059495 1.273563 0.275137 1.942337 0.134737 -0.162217 0.869082 1.176141 -0.448364 -0.797620 2.012928 1.080701 -1.542792 1.347879 -0.294463 0.544186 0.532059 0.204757 -0.048987 -0.394626 -0.490656 1.154214 0.049123 0.517924 0.442833 -1.463397 0.119313 0.172620 -2.570578 0.241417 1.562021 -1.136269 -1.399040 -0.017471 -0.759525 -0.178406 0.880290 -0.071363 -1.198473 -1.355517 -0.501743 0.882564 0.313096 0.970004 -0.973578 0.257203 1.124117 -0.243633 -0.056600 -0.854253 0.328214 -0.530214 -0.752655 -0.455118 0.167954 0.620776 0.593162 0.041155 -0.368316 0.487801 -1.464835 0.350342 -0.256560 0.039832 -0.685295 -0.942364 0.532777 -1.482285 -0.560628 -0.096048 1.417625 0.584032 1.092057 2.301801 2.275559
Q235694 -0.723509 0.432365 0.804732 1.531280 -0.280897 -1.493125 -1.247425 -1.722794 2.084805 -2.005799 2.382143 -0.529581 1.699448 -1.825107 2.098181 -1.918542 -0.137127 0.768716 -0.719202 1.326952 -0.701414 0.920031 1.361081 1.294757 -1.411778 0.167333 -1.744315 0.412914 -0.513405 -0.453839 -1.047018 1.098016 0.368928 1.559499 1.092342 0.438809 -2.455338 -1.725880 0.964536 -1.561277 0.016780 -0.655166 0.842527 -1.442527 -0.282676 -0.750651 -1.839757 -0.353255 0.443127 0.422472 -1.812787 0.248649 -1.607594 0.366751 0.205987 -0.363422 2.200397 -1.041624 -1.746539 -1.083642 1.690344 1.665814 -0.507787 -0.069898 -0.518324 0.185936 0.819697 1.111686 2.345578 1.480239 -0.405381 1.062339 0.573136 0.504961 1.272164 0.436191 1.277008 2.807242 -0.572072 -0.754729 -1.777135 -1.249364 0.568144 -0.643209 1.275500 -0.806923 1.959372 -3.049356 -0.610008 -1.688768 -0.170185 -1.830933 2.336838 -0.516735 1.049754 -2.688282 -0.518564 0.090599 -1.259581 1.134015
Q352 0.451157 0.661105 -0.076915 0.211285 -1.066115 1.767592 -0.878602 -2.322901 0.085752 -1.638591 0.326533 -2.493721 0.347484 0.580263 1.536020 -0.169599 1.261918 1.097409 -1.904234 0.460849 -0.357935 -1.032725 -0.352485 -0.942989 -1.196422 2.708080 1.098653 -0.725778 1.875253 -1.084345 0.526553 -0.227949 1.885743 1.115662 -1.497474 0.507329 0.917619 -1.534893 -0.000142 1.569728 2.476863 0.124120 -0.267718 -0.683660 0.846810 1.142283 0.808115 0.724973 1.348225 -0.622191 -0.897884 0.096576 0.689170 -2.664180 -1.074878 -1.114947 -0.936842 -0.914184 -0.047467 -0.047548 0.418250 -0.204876 1.944673 0.286980 0.341844 -0.420950 2.326968 -1.636584 1.038179 1.536647 -1.656649 0.395887 2.951309 1.814324 1.936302 0.070913 1.397995 -2.706436 -1.160357 -2.146243 -0.501059 1.370098 0.853522 -2.442384 -1.973764 -0.082288 -0.756232 0.854802 -1.715302 -1.757969 0.121221 1.151855 0.159907 -0.669121 -0.344312 1.849873 -2.426159 1.058778 2.082682 -0.015791
Q439314 -0.185017 0.252342 -0.563148 1.639306 -3.250578 -0.297482 -2.087425 0.502372 0.237274 -1.540583 1.075173 -0.051810 0.709288 -1.173876 -1.569672 -2.233904 -1.216702 -1.990959 0.812006 -1.749823 -0.752242 -0.221561 -1.220899 2.385135 -0.323046 -2.401189 -0.824522 -1.355700 -1.356318 -0.899864 -0.136022 -1.733662 -1.722077 -0.245259 -1.431329 3.957005 -0.276955 -2.924636 1.994446 -2.005076 -2.831267 2.195033 -0.271453 1.276379 -1.187432 -3.478993 -0.203541 0.862041 1.520189 -0.210814 1.389346 0.235777 0.359844 1.891414 1.885994 -1.975265 -0.637403 -0.797354 -1.850245 -3.116308 1.656337 0.117672 0.632192 -2.652485 -1.202304 2.600902 -0.195671 0.011835 -0.086605 -0.324713 -1.494429 -0.758500 2.042667 -0.836363 1.680920 -2.058161 1.643141 -0.389824 0.218199 -0.985177 -1.357200 1.169111 -0.653574 -1.099106 -1.096898 0.884460 -0.239670 -3.032802 -0.672695 -0.923939 -2.754918 2.118984 1.270239 0.561490 -0.293594 -1.847979 -1.914611 -0.475756 -0.222871 -0.759717
Q44578 -2.301871 -3.217863 0.154364 2.052002 -0.463017 0.173688 -1.609979 -1.049313 -0.957361 0.567704 -0.660971 -0.143541 1.542946 -2.717496 1.327978 -1.126788 -0.505007 -0.580397 -0.515561 -2.652536 1.847242 1.029885 -1.528182 1.797316 1.075101 -0.188390 1.296681 0.830397 -2.375051 -2.063361 -0.447045 0.787933 -0.889154 0.884371 0.792647 1.074542 -0.994420 -2.369087 1.150732 0.755617 -0.919442 1.615051 0.991442 1.014533 -2.229159 -0.785413 -1.964369 -1.412304 1.324030 3.166671 -0.721023 -1.114588 -0.236056 1.174333 0.874156 -0.568751 1.948261 -0.903447 -0.670825 -1.249397 -1.263313 0.578047 -0.391131 -1.409525 1.336564 -0.499865 -0.540903 0.814933 1.595514 -2.340948 -1.114311 -1.784230 3.727769 -1.131374 2.077660 0.513337 0.058211 -3.199525 -3.114619 0.518122 -0.293170 1.541008 0.675737 0.652414 0.327703 0.740171 1.237663 -3.026784 0.009936 -1.730052 0.687271 2.509573 2.033077 0.485941 -2.705495 -0.649329 0.660532 0.846771 1.273620 2.270677
Q1138101 1.075984 0.355131 0.642652 0.503277 -1.598707 -1.226825 0.488812 -1.186413 0.989550 -0.793202 2.010342 0.448427 2.120625 -0.053362 -0.472589 -0.163613 -0.099150 -0.346257 -1.041802 -1.164296 -0.737268 0.669604 -0.348968 2.446357 -0.744075 2.287948 0.743667 0.457100 0.021282 -0.770687 -0.174013 -1.345018 0.542006 0.352636 0.027773 1.351894 2.288268 -1.810255 -0.276732 -1.975273 -0.364614 2.012282 -0.198789 -0.994055 -0.232151 -0.141582 1.352404 1.293230 0.126975 -0.213142 0.108376 -0.641877 1.010137 -0.233636 2.284040 -0.270352 0.186653 -0.041947 0.036352 0.886342 0.160468 0.001272 -0.721312 0.381985 0.633936 -1.157673 1.696263 -0.493544 -2.346107 -0.406364 -0.333181 0.721212 -0.154161 1.440987 0.368937 -1.833335 -0.171417 2.075733 1.165277 -2.559245 -0.369823 -0.305093 1.147448 -0.261136 0.748135 -2.414696 0.933574 -0.626408 -1.678909 -1.059643 -0.466250 0.860983 0.803559 -0.043188 1.018927 0.287786 -0.132039 -0.633218 0.066069 -0.242756
Q2597050 0.990698 -1.225325 1.948104 2.021939 -2.401953 0.752942 0.696524 1.118463 -0.422670 -0.707727 1.351971 0.104485 0.524927 -0.163154 -1.591744 0.922195 -0.965982 0.729633 0.273632 2.116333 2.445072 -0.482557 0.576083 3.492267 -0.189453 0.482002 -0.672826 -0.162646 -0.834478 -0.406679 0.381390 -2.192629 -0.138827 1.849562 3.153070 0.934626 -0.357341 -2.899983 -1.480891 0.559600 1.841545 1.190728 0.654318 -2.002651 0.930470 -2.749543 0.959669 1.657806 0.029576 -1.037813 -0.977702 -1.869195 0.655320 -0.402107 -0.661620 -1.038012 0.318210 1.112741 -1.424072 1.316732 2.053460 0.229363 -1.183557 0.872593 -0.460679 0.347004 0.957544 1.033342 2.243515 0.647117 -0.153011 -0.689398 0.021961 -0.707666 1.866125 -0.383222 2.501998 2.011762 -0.106665 -1.329048 -0.024665 -2.629178 0.740746 1.354092 0.256873 1.028740 2.684999 -2.017858 -2.136934 -0.674830 -0.068466 -0.166792 0.118532 0.336715 -0.029066 -1.807468 0.390313 1.307056 0.329793 -0.193149
Q37175 -0.814121 -1.067126 1.133755 -0.150262 -2.064379 -1.642935 0.009019 0.366415 -2.649018 -0.142895 0.049004 4.096258 0.933002 0.207235 0.351831 -1.021396 -0.956656 -2.409687 -2.830899 -3.082457 0.181577 -0.029675 1.444606 -0.047179 -2.717143 -1.878089 -2.785183 -2.230374 -1.538877 -1.170579 -1.727645 2.090164 -0.618621 0.614012 -1.574495 1.506929 -1.346320 -1.796711 -0.119172 1.690886 0.000065 0.857015 0.242921 0.358836 -0.875216 -2.350024 -2.728500 -0.369493 1.530653 0.777869 -1.843166 1.120197 -0.631660 -0.620994 1.613780 2.150930 0.824674 -1.733906 0.000162 0.210051 2.474210 -1.073944 1.608239 -2.367181 -2.266587 -0.485628 -1.918669 1.226633 0.092395 -2.547915 -1.448934 -0.901432 3.637995 -1.002077 0.830426 -0.246211 1.768535 -1.132459 -0.417192 0.032744 -0.203819 1.970855 -2.015476 0.435885 -0.057928 1.171913 0.577977 -3.261329 -2.321003 -2.259074 1.046341 3.563363 -0.012574 1.832627 -0.626715 -3.632483 -1.105610 -0.255151 -0.025004 2.779390
Q268018 0.061787 -1.127257 0.599480 1.157273 0.829701 -0.146153 0.124920 0.621717 0.916085 -1.306254 -0.331809 -0.197749 2.286689 0.366857 0.133252 0.786881 -0.052437 0.301625 -0.800302 -0.845705 1.238993 0.637832 0.198115 0.882839 -1.441888 -0.621084 1.182420 -0.033145 -0.571877 2.386526 -1.605210 -1.659217 -0.777127 2.281838 -1.502909 1.215634 -0.528254 -1.674449 -0.230297 -1.718672 -1.928193 -0.610789 1.225842 -0.138832 -0.568885 -2.203533 -1.627349 0.548269 0.777319 -0.089174 -0.380594 -1.496947 -2.663535 -1.089038 -1.486993 -0.375714 -0.230406 -1.076632 -1.953941 0.558590 1.806489 0.067250 -0.085502 -0.094232 0.738505 -0.356980 1.800448 1.949217 0.524770 0.580577 -1.997109 -0.407616 -0.449451 0.799727 0.425874 0.655881 -0.361759 1.602599 -0.918931 0.281518 -0.692017 0.445967 1.139994 -1.287586 1.287890 -2.617880 -1.231506 0.933520 -1.885130 -1.175512 0.263732 0.882009 -0.280408 -0.633663 -1.096349 -1.037281 -0.060306 -2.244591 -1.734656 1.148295
Q324546 2.587253 -0.490416 1.095733 1.311993 0.952930 -1.039154 0.041453 0.132263 0.459639 -2.580912 0.806072 -1.750150 -0.542055 2.743913 -0.086964 1.166936 1.193382 0.285274 -1.236941 1.605150 0.105978 -1.820080 0.009694 -0.186550 -0.380774 -0.213025 1.304689 -3.481378 0.986864 -1.528543 0.439454 -1.318580 1.025731 1.809256 1.943907 0.308448 -0.892939 -1.286000 -0.873556 0.064102 0.602482 1.094108 0.549438 0.567122 1.407791 -0.979309 1.506804 -0.201411 0.197491 -0.172351 -1.287509 0.184253 -1.845581 0.200052 -0.422039 2.294088 -2.636647 0.750447 -0.197173 -0.047060 1.612088 -0.277609 0.479233 0.196274 -1.367359 -0.227652 0.295921 1.831328 1.216803 -0.636814 -0.135727 2.059983 1.597504 0.648120 1.846061 -0.752514 1.637842 0.996662 0.245064 0.223025 -1.952564 -0.270187 0.120111 0.472427 -0.466363 1.436790 0.611586 -1.002019 -0.241371 -0.889138 -2.002913 0.562464 -0.219343 -0.986085 1.225411 -1.112740 -0.850526 0.638518 -0.976684 -0.189011
Q15972938 -2.127413 -0.025562 1.186361 3.811865 -2.338237 -2.636718 -0.416381 -0.194588 -0.638403 -0.694556 0.359129 0.810869 0.902838 0.278927 -2.174606 -1.428355 -1.560434 -0.930803 -0.698674 -4.528336 0.434301 -1.551845 -0.706432 3.650753 0.561332 0.563721 0.963674 1.240126 -0.680480 -1.281572 -0.780957 0.924190 -1.077163 -2.168108 -0.834424 1.164589 0.503679 -2.188411 0.136867 1.696629 -1.087313 -0.435164 -1.854672 0.674331 0.657282 -1.021322 0.501182 0.962877 0.609137 0.222703 -0.583085 -0.884109 0.854448 -0.387797 1.459374 0.065432 -1.061545 0.651380 -0.568162 -2.455753 -0.387024 0.978055 -0.894287 -0.411204 2.065250 0.640070 -0.352050 -1.098257 0.693930 -0.123503 0.963990 -1.776772 1.608672 0.488112 0.507197 0.605965 0.512553 0.710155 -0.276327 -0.633539 0.616514 1.432908 -0.676513 -1.400344 0.645129 1.111716 -0.274497 -2.066711 0.545428 -2.088700 1.342434 3.188531 0.356647 1.431349 0.329986 -2.263802 -0.717048 -0.138082 -0.243212 0.218460
Q159 1.699399 0.220213 0.562652 -0.084775 -0.154728 0.307814 -0.032113 -3.138757 0.298824 0.311650 0.119220 -2.241240 -1.168981 -0.125246 1.136792 0.798099 0.498080 -0.673610 0.903833 -0.464219 -0.521446 -0.790597 -2.513766 0.120993 -1.560193 0.445176 1.497898 0.082055 2.997697 -0.977090 -1.143493 -0.961757 1.117384 0.678257 0.781296 1.873739 -0.807343 -0.211750 0.321158 -0.618670 1.462266 1.223205 -0.888265 0.685288 2.134777 1.037783 0.618700 1.070813 0.451183 -1.701372 -0.755784 -0.785018 -0.793255 -0.632839 -1.277896 -0.939089 -0.529593 1.337776 -1.897520 1.840086 -1.397985 -1.781998 0.323886 0.876259 1.028799 1.813953 0.336666 -0.881485 -0.798613 1.824792 -0.022168 1.266947 3.159497 0.383551 4.322271 0.782323 -1.129848 -1.373275 -1.357183 -0.538633 -0.623372 -2.744643 1.623632 -2.846712 0.488580 -1.111815 1.434916 1.693295 1.956780 -0.156413 -0.027827 0.892083 -0.788833 -1.018792 0.041100 1.673616 -0.128663 2.603035 0.947847 0.480890
Q145 1.708658 -0.609110 -0.500253 -1.090973 -1.360790 2.008795 -1.381674 -1.111256 -0.756410 -0.026648 0.134136 -1.137631 0.963473 -2.294202 0.503362 -0.070860 -0.843877 -1.438960 0.355075 -0.150636 -0.508138 -0.539824 -1.060459 -0.343703 0.593081 0.425829 0.926504 0.468569 2.544490 -2.709516 -1.072519 -0.426494 0.415859 0.499522 -0.404268 0.525537 0.364018 0.037803 0.888560 1.422937 3.027585 0.381998 0.376759 0.862980 -0.106916 1.541770 1.628936 0.514137 1.418111 -0.747398 0.720655 -0.112724 -1.159900 -0.381504 -0.872565 -0.221262 -0.648042 -1.307213 -1.012757 0.665363 -0.138408 -2.400528 -0.000602 -0.163895 0.684378 2.046547 -1.040386 -1.073350 0.176579 0.610983 -0.540586 1.791859 1.644363 0.535315 3.584036 1.694859 -0.925010 -0.213936 -0.586727 -0.754714 -0.204232 -1.779028 0.788332 -1.484558 -0.412286 0.085286 -0.339156 1.318143 0.439286 -0.486623 1.000328 1.572150 0.425984 0.454967 -0.510100 0.572295 -0.437726 2.628717 -0.337389 3.233904
Q21804562 0.932210 -0.262834 0.423863 1.678893 -0.148478 -1.774052 -3.373662 -0.027605 -1.988824 -0.802410 0.072538 -0.965020 0.582506 1.315625 1.273865 0.686710 0.389475 -0.711746 0.808205 -1.375567 2.141007 -1.170247 1.453192 0.200895 2.115184 1.985551 -0.833524 -0.550323 0.434260 -1.981972 -2.439081 0.662579 1.705323 0.738861 -0.292575 -1.015721 0.570702 -0.015064 -1.152135 -2.084389 -1.187107 0.844830 -1.187155 -2.246384 -0.931664 1.239647 1.766077 0.104033 1.223515 -1.348893 -2.316639 -1.362858 -0.571327 0.008407 1.217997 -0.925958 0.238164 -1.086352 0.747978 -0.330334 1.182248 0.593022 0.167985 1.085748 -1.502227 1.107505 -0.140352 1.916910 0.688821 2.180900 -0.696622 -0.474300 1.291572 -0.523925 -1.669507 -0.276948 -0.822187 -0.777826 0.731151 -2.667059 0.580142 -0.855830 1.368211 -0.006884 -1.878143 -0.212281 -0.430565 -0.184543 -1.212716 -0.509572 -0.176394 -1.476342 -1.193135 0.248124 -0.727881 1.524996 -0.279960 -2.256871 0.098072 1.149822
Q1346641 1.379409 -1.633609 -0.745303 1.256662 0.390791 -0.963068 0.622379 0.866700 0.472275 -2.282259 0.932918 -1.434556 2.496602 0.204010 -0.455238 0.532670 -1.110473 -0.276244 -1.276615 -0.689041 1.444483 0.285413 0.764611 1.639115 -1.330185 -0.810998 1.734293 -0.152711 -1.425068 2.159734 1.638409 -1.371472 0.285706 0.753836 -1.051184 1.338568 -0.869324 -0.612764 -0.831211 -1.038076 -1.292985 0.429397 1.173740 0.782576 -0.614404 -2.587142 -1.174079 2.119672 -0.206390 0.173355 -1.328920 0.254750 -1.686667 -0.481736 0.648242 0.063219 -0.608520 0.189892 -2.717896 0.532457 -0.291981 -0.399900 -0.061145 -0.004456 1.925616 -0.152288 -0.875608 3.269813 1.410419 -0.937313 -3.782666 -1.530838 -1.008666 1.620817 -0.961546 0.262548 -0.738450 2.707165 -0.695402 0.993468 -1.768645 -0.023465 1.087207 -0.233789 1.354943 -2.882839 -1.678097 0.270136 -4.414832 0.179460 0.732561 -0.205807 -0.730339 -0.277589 -1.529349 -1.474251 1.278354 -1.871669 -1.456028 2.102535
Q668 0.754403 -0.774131 -0.165323 -1.299587 -1.059912 2.014125 -0.212404 -0.289493 0.698392 0.273603 0.696830 -2.327828 -1.089259 0.043146 -0.625846 -0.050974 0.834212 0.104418 0.891225 -0.507515 -0.979253 -1.041548 -1.812961 -0.076511 -0.381941 0.432497 0.128583 -0.632150 2.219548 -1.446010 -0.493268 -0.899952 -0.395787 -0.347266 0.620637 1.681196 -1.052231 -1.328204 -0.254165 -0.335295 2.945329 1.354907 -1.238209 0.965229 1.047132 0.128198 0.780647 -0.260087 1.582735 0.178624 -0.017823 0.178863 -1.038480 -1.786315 -1.383153 1.846650 -0.980882 0.340714 -1.737019 0.750260 -0.369970 -2.713954 0.308990 0.971043 1.923640 1.489021 0.550760 0.449528 0.663710 2.065688 0.524090 0.671950 3.605368 1.108778 1.734729 2.308164 0.750814 -1.051610 -0.203686 0.530889 -0.236696 -2.512459 2.389847 -0.803609 1.331249 -0.200843 0.138284 3.386660 2.182169 0.398196 1.862690 0.704682 0.650296 0.764270 -0.208720 2.348838 0.264784 2.966366 0.637292 0.819108
Q3752663 1.498128 -1.000697 1.443391 3.259318 -1.507827 0.785421 0.143976 1.138983 0.156384 -1.313210 0.726886 -0.566266 0.965844 0.092015 -0.679771 0.632055 -0.406147 1.023917 1.400066 2.322376 2.260939 -0.188738 -0.811260 0.667848 0.771955 1.062452 1.596917 -1.082541 -0.157301 -0.898247 -0.774399 -1.969640 -0.706098 0.637194 0.883408 0.569981 0.573141 -2.381042 -2.838192 -0.111056 1.050569 0.842659 -0.021577 -0.071821 0.414060 -0.371196 0.783318 0.933835 -0.010658 -1.554440 -1.388715 -0.492471 0.816391 0.418336 -0.810088 -2.019048 -0.117486 1.304215 -0.081300 1.165915 0.371554 -0.731753 -1.599518 -0.243584 -1.052617 -0.167888 1.730443 1.988572 1.870618 0.118327 -1.372892 0.172133 0.829219 -0.624677 0.885662 -0.466717 2.822592 -1.079653 0.293923 0.062453 -1.233875 -1.169165 0.373346 0.438934 -1.423137 1.439399 1.581383 -0.197517 -2.710480 -0.358641 -1.459576 0.924499 -0.402553 -0.801801 -0.510327 -0.845826 -0.029505 1.151985 1.306419 -0.398964
Q19767728 -0.084787 -0.710819 1.070678 1.402367 -0.394729 -1.079247 1.215657 1.529006 -0.231487 1.329835 1.715526 0.118231 -0.833784 1.531721 -0.234997 -2.622317 -0.919542 -0.585725 0.048747 -0.808331 1.264882 0.595393 0.296042 2.897756 0.060686 -0.574496 1.529189 1.606633 1.386985 0.055411 -1.370581 1.275273 1.053985 1.638081 -2.162266 0.695090 -0.320615 0.453397 -0.626069 -0.583576 0.031364 -1.043762 0.112798 -1.126815 -1.442208 -2.717364 1.754819 1.242715 1.521693 1.215270 0.681530 1.282174 0.087800 1.995428 0.987257 0.814434 -0.306522 -0.245367 -0.913106 -0.821177 -0.923189 1.704930 0.336351 -2.376629 -0.630507 -0.873113 -0.786584 -0.104260 0.259193 2.090602 1.098801 -1.509145 0.665730 -0.350780 -0.729006 -1.468697 1.299694 -0.100799 -0.196474 -2.920954 -0.100291 -0.505830 0.885067 1.500599 -0.039763 -1.815235 1.862519 -1.603055 -0.774235 -0.929284 1.206263 1.350856 -0.632105 -0.088239 0.589240 -0.627671 -1.065927 -0.473581 -0.590890 -0.553591
Q192682 -1.028104 -2.452603 0.703464 3.601660 -2.993239 -1.171220 -0.217845 2.616720 -0.407255 -0.984664 0.544484 4.374196 1.712455 0.832824 -0.613605 -0.617065 0.907987 -0.750578 -2.495459 -2.357587 1.164046 -2.581760 0.361885 2.497861 -0.486826 -1.470077 -0.509039 -2.488225 -2.109996 -0.594269 1.681275 -0.362015 -0.419583 0.273331 -1.002595 -0.970813 -1.410061 -4.378173 1.616148 -0.088839 -1.517715 0.479214 -0.311521 -1.574496 -1.722766 -2.175611 2.353176 2.184751 2.981124 2.044812 1.410392 -1.636217 0.807654 -0.033779 0.019764 2.790628 -0.638546 -2.541120 0.678176 -0.032784 2.004313 0.942211 -1.259280 -1.924793 1.726733 2.023532 -1.397114 0.885902 0.509990 -1.777119 1.111211 -0.998867 1.501195 -2.320843 1.271777 0.090201 -1.954719 -1.023860 -1.070243 0.236613 -1.202757 -1.326489 -2.430006 -0.842985 1.346806 0.371991 -0.026042 -0.892220 -2.005083 -1.077203 0.700167 0.624482 0.953131 0.599403 -0.309103 -2.029603 -0.485198 -1.410098 -0.563175 1.836219
Q23572 -1.110741 -0.712469 0.815321 1.922356 -0.226794 -0.858423 -0.239936 -1.177683 0.808174 -1.168386 2.055254 0.078828 0.125322 -0.107239 -1.412307 -2.525504 -0.890358 -0.232582 -0.098806 -0.657354 2.096223 0.062883 -0.571142 2.086145 -0.455978 1.048537 0.807796 1.800712 -2.055619 0.541062 -1.894945 0.715154 1.144196 0.374418 -1.607112 0.043906 -0.831539 -2.063768 -1.460562 -0.664388 -0.627509 -2.226211 -0.376234 1.403681 -1.239597 -0.069971 0.024846 1.474341 0.429101 0.762935 -0.199638 -0.150228 -0.648911 2.411129 0.055893 0.498372 0.293938 -1.399103 -0.037754 -1.196251 -2.050106 0.287384 -0.614918 -2.894610 0.896446 2.516556 -2.048794 0.206681 -0.207774 1.526250 0.262248 0.687253 0.950844 -1.278527 -1.567234 2.458354 -1.143837 -0.812318 -1.007619 -2.623821 -0.150562 -0.992659 -0.420933 0.103018 -0.426198 -1.664718 0.761548 -2.039787 -0.183678 -1.143282 -0.481288 1.752472 -1.017905 2.336265 -0.162932 -0.439614 -0.859340 -0.357236 -0.533933 1.175721
Q186304 0.092163 -0.110663 1.333201 1.537101 -0.612199 0.838562 0.297269 -0.679540 0.579375 -0.137781 -0.309604 -0.118118 0.950196 -0.484215 1.118900 -0.780089 1.579551 -0.030330 -1.336137 1.390377 0.994441 -0.058238 -0.140642 1.823624 -1.533915 0.066499 0.640222 0.781484 -0.652977 1.065822 -1.314122 -0.955633 0.889807 1.659199 0.661349 2.417078 0.484109 0.350532 0.573620 -0.278745 0.058637 0.629908 0.842260 0.084846 -2.371672 -0.506947 -0.115280 -1.437770 -0.943452 0.355345 0.230338 -0.399270 -1.140082 -0.544076 -1.191360 1.919659 -1.325982 -2.398086 -0.413057 -0.048314 0.939896 2.606127 0.644726 -0.050816 -1.608831 0.809308 1.085106 0.375579 0.813873 -2.067698 -1.495345 0.613319 0.492266 0.263574 0.333759 -0.281881 1.562853 -0.200657 -1.061598 -1.009963 -0.741774 -0.407296 2.198618 -1.355114 0.219775 -1.986519 -0.717022 -0.907710 -1.805307 -1.320567 1.065695 0.186585 -1.290999 -0.792101 -0.402198 -2.054321 -0.449520 -0.232024 -1.973296 2.343797
Q18350210 -0.304329 -0.431252 0.725231 4.382293 -0.071612 -1.572962 0.047505 0.591396 -0.047846 -0.547213 1.622200 0.406860 1.359766 0.648641 -2.150927 -1.873074 -2.747963 0.496600 -0.477759 -3.681678 0.655086 -0.141167 -0.461793 2.341860 1.676528 -0.035624 1.241173 0.144017 -0.075297 -1.629958 -1.453967 1.296039 0.700927 -2.109689 1.166534 -0.110078 1.480542 -0.462803 0.448141 1.526572 -1.908432 0.556251 -0.342956 0.242995 0.125458 -1.806526 1.093436 2.036016 0.125966 0.024345 -0.983453 -1.257595 0.990651 0.065312 1.402709 1.611721 -0.717074 -0.084462 -0.214344 -1.513399 -0.043157 0.656640 -0.759210 -0.537136 -0.266272 -0.973471 -2.423742 0.392891 0.048487 -1.699869 0.804027 -2.863766 1.665388 1.459631 1.454937 0.964964 2.024861 1.264623 0.569384 -1.554693 0.997049 -0.359544 -0.942293 -1.920078 -0.878710 -0.351128 -1.246486 -1.055450 -1.431563 -0.809649 1.943760 2.291703 -0.551479 0.616976 -0.051280 -0.876753 -0.632964 0.526776 -1.682250 1.668288
Q15711398 1.440064 -0.906780 -2.229055 4.585023 -0.621618 -2.189442 0.079947 -0.495165 -0.514819 0.361776 0.833431 0.256747 -0.442597 -1.284256 0.520276 -2.789975 0.087165 -0.780035 -1.216698 -0.568883 0.254790 -0.593421 -0.396221 5.014186 -0.375027 -0.469449 -1.424764 0.369030 -0.797558 0.505562 -0.683591 1.610803 1.777895 0.814215 -2.232040 1.109020 -2.011068 -1.477772 -0.060511 -0.632139 -1.681848 -0.505224 -1.035087 -0.307799 0.814637 -1.763695 0.727639 3.328140 -0.411421 2.916897 -1.253928 0.266295 1.845380 2.146533 1.704854 -0.062960 0.086938 0.461252 -0.168111 -0.839296 0.512334 1.604777 -2.116476 -1.209410 0.999035 -0.264280 0.900121 -1.655864 2.171679 0.913425 0.467665 1.323119 0.884354 -0.340276 -0.716585 0.681494 0.122131 -1.370593 -0.288440 -0.635230 0.351891 0.859293 0.006329 -0.088227 0.557224 -2.346442 0.836023 -1.050039 -0.309343 0.726526 0.058776 2.911297 -1.157263 -0.672805 -0.357394 -0.687148 -1.714419 -0.743233 -0.531489 0.826503
Q1124 1.623589 -2.477118 1.065962 0.276743 -0.228832 -0.147598 0.831586 -0.407198 2.710023 -2.133106 0.307357 -0.725670 -0.511419 -0.350234 0.038233 2.131889 0.641462 1.793372 0.166501 1.020688 1.499055 -0.553400 -0.218837 -1.235629 0.291515 1.513831 0.806707 -0.699112 0.155205 -1.056137 0.370316 -1.265393 1.383265 2.349959 1.371499 -0.418106 -0.274018 -0.920150 0.163954 -0.928703 0.522168 -0.654712 -1.090822 0.713314 1.140349 -2.508646 0.128497 0.037501 1.319349 0.132942 -1.290788 0.245705 0.744190 -1.386318 -0.194032 0.539112 -0.506962 -0.770092 -1.253828 1.886558 1.328545 0.674506 2.589087 -1.759204 -1.437101 -0.206735 -0.605909 1.132217 0.574132 -0.918849 -1.983741 0.439315 1.465124 -0.334130 2.386250 -0.904553 2.813575 -1.245031 -0.523001 -1.045429 -0.335682 -4.159883 -3.076086 1.822067 -1.617847 -0.407734 -1.226650 1.867677 -1.683701 -0.990701 -0.128929 1.396383 -0.201969 -0.616661 0.604024 1.014902 0.376281 -0.918954 -0.035392 2.428667
Q18820013 1.649995 -1.528366 0.702158 0.442870 -0.695490 0.402065 -1.127568 -0.075483 -2.163491 -0.382237 3.956120 0.789812 2.418367 0.260643 -0.634519 0.044953 0.572038 0.172164 -0.717940 -1.066280 0.251672 0.303789 0.549507 2.053020 -1.498709 0.717825 -0.791782 0.393668 0.581192 0.088114 -1.835784 2.565841 1.347909 1.367438 -0.006461 -0.994852 -0.678744 -1.898057 0.236999 0.983509 -0.684914 1.654573 -0.848759 -0.781736 -0.055562 0.043395 0.640957 0.754785 0.845026 1.715835 -0.542746 0.086867 -0.741031 0.554554 -0.956986 -0.119336 -1.185794 -0.583407 0.419251 -1.075475 -0.438794 1.208978 -1.327905 -0.544965 -1.500773 -0.106635 -0.358682 0.247742 0.174812 -0.701806 1.967382 -1.010551 1.393740 0.177641 -1.441490 -0.651995 1.344059 0.310287 0.592998 -1.393403 -1.443416 -0.027696 0.441741 -1.144655 1.793652 -1.458502 -0.852570 -1.686415 -0.354638 -1.080637 0.319165 1.358882 0.261613 0.620384 0.410529 2.569478 -1.835157 -0.527746 -0.888005 -0.141704
Q35073 0.258568 -2.184255 0.810013 -1.648849 0.421720 0.400867 1.791271 -0.461448 0.716097 -0.901350 -0.163548 -1.058572 -0.772585 1.353366 1.089966 2.804364 0.459056 1.876891 -0.598275 0.176464 1.311360 -0.266730 -1.085341 -0.279530 0.989333 2.618907 0.543306 -2.392925 2.524478 -0.995213 -0.954021 0.800142 0.199974 1.959492 0.683790 0.743081 0.178182 -1.004022 -0.221806 0.999264 0.845977 -1.163669 -1.713870 -0.007472 1.220991 -1.172944 0.542570 0.879951 1.693793 0.386153 -1.543887 0.025228 0.353783 -0.831175 -0.096817 -0.931730 -1.765241 -1.068650 0.476323 -0.410696 0.941206 -0.837654 0.702077 -0.857580 -0.945533 1.143121 -0.423365 -0.509006 -0.379744 -1.276571 -0.310235 1.068999 2.324836 0.568402 1.587745 0.992880 1.955540 -0.777713 -0.145285 -1.025778 -0.901410 -2.563056 -1.080701 0.720594 -1.170438 -1.965018 -0.539354 1.572430 -2.511086 -0.611348 -0.172930 0.173779 -0.523860 -0.915287 -0.773437 0.794341 -2.269385 -0.828515 0.282996 1.723365
Q40026 -0.472640 -2.357833 1.182744 0.150625 -1.944422 -0.236707 -1.902877 0.184911 -0.701790 0.479742 1.838904 1.149135 2.822975 0.673054 0.361025 0.675642 0.304675 -1.121542 -0.797398 -1.146022 -0.147995 -0.415272 1.528781 0.052637 -0.921595 0.434425 -1.243660 1.118524 -0.845759 -1.507595 0.668196 -1.185100 0.853415 1.035739 -1.219450 4.664123 0.015050 -1.255472 -0.792319 2.580277 0.561661 1.511222 -0.521017 0.375579 -1.605883 -3.292253 -2.302642 -1.472869 0.340948 0.677056 -0.146442 -0.830770 1.851081 -0.293725 1.295085 1.588305 -0.453095 -1.577711 -1.670365 -0.855614 0.553574 0.903245 -0.338481 -1.478107 0.634013 1.112048 2.329617 0.805238 0.210120 -1.870341 1.632775 -2.607044 1.474596 -1.485456 2.882500 -0.448222 -0.830544 -0.650066 -0.367181 -1.187789 -1.503602 0.607181 0.266570 -0.660039 -1.377985 1.153347 -0.457078 -3.408525 -2.202940 -3.654576 -1.755111 1.109641 -0.575850 0.042667 -2.709266 -1.452703 -1.362721 0.211492 0.209679 0.818804
Q438406 -0.643651 0.777829 0.540328 1.301001 -0.366819 -1.819404 -1.830950 0.949396 -1.161224 -0.251010 1.169892 -0.512291 -0.111860 -0.378053 -0.092604 -0.459663 0.025296 1.841456 -1.913255 0.932736 1.138666 -0.871426 1.151716 2.464802 0.662891 0.605285 -0.133119 0.816406 -3.185006 1.920074 -0.735073 0.534487 0.317237 2.629886 -1.722880 -0.213774 -0.922966 -0.622064 1.506934 0.707310 -0.797051 0.211063 -0.899447 0.449328 -1.474697 -0.676094 -0.393610 2.532077 -0.046733 1.038106 0.227914 0.170277 -1.230527 1.410789 0.539264 2.110136 -0.951384 -1.182736 -0.579052 -0.668619 -0.280681 0.622154 -2.018925 -2.550599 1.117996 -0.781404 -0.241473 -0.957142 2.055537 1.726765 2.770022 -0.331382 -0.648774 -1.730412 1.695708 1.766686 -0.398682 0.312425 0.291931 -0.948496 -1.264842 -1.047870 1.049862 -0.266984 -2.212739 -1.932642 1.060820 -2.155132 -1.224006 -1.294359 1.676809 0.859712 -0.392411 0.863070 -0.870165 -2.059906 0.643895 -0.717725 -1.014050 0.105423
Q298818 0.463128 -0.586007 0.439908 1.208437 0.742764 -0.421411 -2.913427 0.972282 -1.273165 -1.135460 0.267150 -1.786150 0.918766 0.845163 0.962019 1.375531 -2.249825 -3.066805 0.111643 -1.046683 0.361779 -0.742194 1.583030 0.465676 1.254126 1.084581 -0.549083 -0.583041 1.096616 -2.148517 -2.354579 -1.187329 -1.391995 1.662423 -0.731966 0.796877 0.442250 -0.782294 -0.086259 -1.685248 -0.486637 0.298723 -1.083370 -1.487763 -0.581419 0.126509 -0.632249 -1.118195 1.138946 0.505518 0.125204 -0.241825 -1.759295 0.793331 0.936643 -0.586007 1.031694 -1.930886 -0.868872 0.320790 2.637745 0.834738 -0.245647 0.338553 -0.295461 -0.517367 -0.880838 1.372048 -0.068418 0.732517 -0.653821 -1.808946 2.968658 -1.974558 0.479337 0.077138 0.075241 -2.032766 -0.081788 -1.584340 0.523855 -1.563873 -0.749987 -0.130354 -0.094868 0.231490 -0.364246 -0.465453 -1.315745 -1.365520 -2.241712 -0.318642 0.495105 -0.345309 -1.109315 -0.086632 0.842884 -0.860206 -0.063238 -0.842643
Q8539 0.560413 0.353841 1.540749 0.605670 1.598240 -1.429481 -1.044225 -0.937929 -0.381135 -0.630526 1.224288 1.659551 -1.729956 -1.997474 0.781345 -2.893684 -0.243435 0.126299 -0.673574 -1.314739 -0.926841 -0.816295 0.910883 1.571492 -1.165470 -0.704931 0.395296 1.168643 -1.485246 -0.344966 -0.836153 1.010137 2.165803 1.122110 -1.727030 1.886723 -0.801475 -1.447061 1.049228 0.317156 -0.899275 -0.083325 -1.280357 -1.121822 1.655505 -0.572168 0.359316 2.984974 -0.073494 0.435599 -0.056946 1.890006 -0.027443 1.373375 0.760624 1.904181 0.239269 -0.854154 -0.864829 -0.020729 -0.622331 0.294740 -2.465663 -1.983075 1.306774 0.805427 -1.141268 0.818491 0.077494 -0.249828 1.646186 -0.513889 0.081413 0.204193 -0.397051 0.991239 2.358179 -1.558282 -1.546772 -3.250349 1.643471 0.450695 0.675301 0.575776 0.566052 -1.633379 1.148710 -0.306412 -0.625316 -2.323357 2.342977 0.755129 2.067752 1.764587 -1.360978 -0.068922 -1.056556 -1.610453 -0.693543 1.183973
Q162959 -1.312057 -1.136967 0.908304 3.147496 -2.672246 -1.387937 -0.395393 1.982849 -0.266768 0.404286 0.237931 3.945304 1.292121 1.004537 -0.590468 -0.468740 0.729624 -1.591008 -1.486981 -2.038820 -0.169916 -1.496304 -0.545133 2.722167 -0.003519 -1.396034 -0.392078 -1.715502 -3.146369 -0.113470 1.452360 0.399245 -0.878331 0.085688 -0.017494 -0.169792 -1.530949 -4.497467 1.893517 -0.718210 -0.694130 0.619908 0.993388 -1.947928 -1.839888 -2.054355 0.821295 2.263196 2.595416 1.416657 0.886575 -0.896785 0.551466 0.238989 0.212814 0.664260 -0.668011 -2.409109 -0.110486 0.517638 1.750311 0.821462 0.187678 -2.817507 0.832709 1.962577 -2.145870 1.725939 1.768305 -1.776441 -0.920156 -0.646420 0.667675 -2.986647 2.333396 0.227255 -0.737177 -0.209675 -2.781738 0.433053 -1.610540 -1.218456 -2.172837 -0.976732 0.717498 1.444551 1.223745 -0.695577 -1.425037 -0.245379 0.469811 0.857562 0.543541 0.148444 0.048833 -1.013531 0.564156 -2.127935 -0.512124 2.485171
Q18703038 -0.169579 -0.623697 -0.825762 3.241969 -0.323749 -2.219064 -0.024870 0.398605 0.441105 1.533627 2.040794 1.786075 1.627508 -0.014415 -1.755302 -1.372806 -1.985932 0.101000 -0.825653 -3.201277 0.646137 0.145043 0.283604 1.168859 0.830361 0.516576 2.830542 0.987841 -2.452284 -0.170126 -0.664137 0.528649 0.591736 1.168662 -0.612892 0.611237 0.993519 -1.224281 0.803964 1.177284 -2.094446 -0.386313 0.048149 0.048137 0.514176 -1.522556 0.575749 0.672165 0.885725 -0.739928 0.699598 -0.041385 1.439841 -0.477117 2.667651 0.591764 -1.134269 0.053873 -1.732953 0.910569 -1.785550 0.359460 -1.052967 -0.045210 0.428561 0.765781 -0.808014 1.264584 2.049096 0.527034 1.523146 -1.242126 1.626383 -0.427165 -0.093361 -0.931228 1.095047 0.231294 -1.026882 0.257861 0.080264 0.440872 0.137170 0.773396 0.523311 0.307782 -0.596933 -1.713395 -2.448665 0.049628 -1.095270 -0.450457 0.679314 0.662174 1.306001 -1.276135 -0.549007 0.048038 -0.926082 0.336209
Q28288 -2.049424 -1.311371 -1.097635 1.208299 -3.133818 -1.686487 -1.651538 0.146911 -2.642527 -0.357498 1.656633 0.895117 1.000132 -1.619760 -2.928358 -0.802193 -2.055069 -2.183255 0.124201 -0.757731 1.434087 -1.722582 0.735978 1.224854 -0.337923 -1.125140 -0.718305 -1.322484 -3.268510 -1.077164 -1.037615 -0.209018 -1.262268 0.403956 -1.906534 0.725495 -0.283883 -1.769472 2.486110 0.611742 -1.490891 2.235159 -0.419418 2.227175 -2.440612 -2.679904 -0.720208 0.795328 -0.210020 -0.451777 1.867893 2.735183 0.646581 2.161080 1.813524 -1.706811 -0.812310 -1.904968 -2.076855 -2.390536 3.061017 -0.757182 -0.504072 -3.712856 -0.178389 4.836089 -2.301269 -0.003354 1.095378 -3.051893 -1.526965 -1.618252 1.575342 -1.022526 2.444665 -1.073339 1.532416 -0.009122 0.157446 -0.050498 -0.889121 0.878639 -1.980807 0.934182 -1.055937 -0.009605 -1.039912 -2.011502 -1.314288 -1.832831 -0.602476 2.350430 0.752870 1.000168 -1.376767 -1.818420 -2.304464 -0.402530 2.248573 1.920304
Q552314 1.736365 -0.266071 -0.775397 3.756005 0.541045 -2.237521 -0.302587 -0.737190 -0.245601 -0.025870 0.022680 0.149769 0.023663 -1.446734 0.346962 -2.887798 0.417038 -0.080358 0.580518 -2.034717 1.326196 -0.511877 0.177586 2.670918 0.275244 -0.596571 -0.996634 0.398404 -0.692735 1.693850 -1.214817 0.146979 1.800657 0.622475 -3.493709 1.781224 -2.663525 -1.409561 -0.040556 -0.776477 0.332045 -0.700023 0.524190 -1.558146 -0.145526 -1.824292 0.141136 2.216418 -0.726523 1.913615 -1.196320 -0.771023 0.023307 3.237846 1.161018 1.335171 0.295550 0.166016 0.984447 -0.720578 0.474375 2.138536 -1.580751 -1.180020 0.997415 -1.646692 -0.266041 -0.842721 1.381522 0.623723 0.716878 0.886523 0.431310 -1.999703 -1.681385 2.028783 -1.404666 -0.826017 0.245990 -2.257228 -0.424212 1.245986 -1.250977 -0.939954 0.675510 -2.332035 0.739748 -0.147094 -0.225629 0.148162 1.309257 2.666170 -1.074432 -0.948468 -0.174530 -1.545314 -2.208723 -1.614851 -0.885844 1.837381
Q142 0.908377 0.094245 -2.028741 -2.288361 -1.001959 0.188931 0.306499 -0.141074 -0.561347 -0.078053 -0.291949 -1.086987 -0.580601 -0.525433 -0.145127 0.489548 -0.702590 -1.378992 1.792540 -0.422628 -0.869643 -1.039235 -1.588680 -0.230149 -0.926281 0.798189 1.429473 0.177559 2.437480 -1.775525 -0.551522 0.286113 0.213781 1.016568 0.833638 1.213229 -0.099420 0.319928 -0.149070 0.123490 2.236218 1.400455 0.818802 -0.014982 1.218297 2.238334 0.651554 0.337582 0.335318 0.264491 0.446164 0.924233 -0.861131 -1.358214 -1.407867 -0.075088 0.424266 -1.131396 -1.364097 0.775384 -1.275666 -1.967768 2.085143 -0.776045 0.880543 0.896236 0.324696 -0.463594 -0.053016 0.830064 0.344968 0.860869 2.647700 -0.112862 3.452589 1.871747 -1.891979 0.707806 -0.181567 0.399862 0.139743 -1.375365 2.304014 -3.570975 0.553324 -1.410010 0.312981 2.258575 -0.557027 -1.173018 0.577470 -0.182254 -0.124005 -0.973593 0.362988 2.269258 -0.989778 1.396974 0.551038 1.618138
Q11666 0.419086 0.184499 1.519086 -1.023058 1.396555 -0.561126 0.597440 -1.256741 -0.176307 -1.307693 1.569819 -0.246522 0.267410 1.623946 0.485834 -0.151010 1.159369 1.577010 -0.454552 0.150295 1.232341 1.579877 -0.780653 -0.040378 -1.475769 -0.108917 -0.720694 0.094615 0.278819 0.687604 -1.652520 0.153824 1.280013 0.605413 -0.434033 1.881233 1.376990 0.360292 -0.231656 -1.310230 -0.098324 2.156774 1.191434 -2.722528 0.212956 -0.458482 0.565592 0.631538 -0.751771 -0.631585 -0.427281 -1.768216 -0.333604 -1.469923 -0.235425 0.679339 -1.586616 -0.836916 -1.310844 0.180090 0.207074 0.094908 0.525122 -0.117136 -0.863320 -0.704865 -0.228266 -1.221610 -0.753951 0.570731 -0.204911 1.024529 -1.155149 -0.407612 0.619622 0.062156 -0.203151 -0.014605 -0.581634 -1.173652 0.407653 -1.586478 0.465496 -0.651161 0.004458 0.324824 0.411611 -1.610626 0.199109 -0.049667 0.001236 -0.663624 -0.083914 -0.024735 -0.337184 -0.751091 1.321870 0.878777 -2.191870 1.542325
Q52 0.731996 -0.086080 0.050366 0.050854 0.289325 -0.215824 -1.202663 -0.945571 -0.818070 -0.837195 0.867735 -1.394464 -0.680986 -0.457372 -0.281946 0.994285 -0.177052 0.140173 0.053502 -0.344291 0.162179 -0.146885 0.175777 -1.218444 -0.150236 0.147686 0.566352 1.335536 2.206259 -0.432261 -0.106618 -0.159946 0.523085 0.119900 -0.245238 0.069782 0.113810 0.331323 0.578770 -0.371803 -0.190343 0.167988 -0.169640 -0.281105 0.985702 1.184114 0.213800 -0.546004 -0.628649 0.823962 -0.069384 0.204109 0.191679 0.220973 0.765415 0.827841 -0.835567 -0.500070 0.361421 0.387138 -0.373509 0.364755 -0.384732 -0.988446 1.685410 -0.016113 -0.011215 0.523281 0.117934 0.777527 -0.080651 0.501942 1.047798 0.641028 -0.357003 -0.200677 0.167287 0.193117 0.095075 -0.592001 0.357938 -0.427182 0.249791 -1.423191 -0.754593 0.528037 0.493340 0.442055 -0.040989 -0.313868 -0.332202 -0.008911 -0.132867 0.485070 -1.824306 0.625128 0.034254 0.738174 0.680837 1.028315
Q19850715 0.284437 0.512896 2.540970 1.976090 -1.000061 -3.298079 -0.400773 -0.005857 -1.130826 -0.859903 0.036672 1.915302 0.423689 0.575057 -2.077193 -0.983612 -1.431181 -0.611763 -0.416277 -2.390110 -0.307945 0.654832 -0.504140 0.157119 1.020085 -1.182328 0.935602 -0.317071 -1.872817 -0.986749 1.464580 -1.970470 -1.093515 -0.223580 -0.602319 1.646261 -1.176847 -1.617468 0.929444 -2.029460 -0.651670 2.127053 0.305467 0.999755 0.310706 -2.315051 0.220498 -1.625407 1.598445 1.888934 0.540997 0.241493 -0.677073 0.200114 2.976722 1.747392 -0.638180 1.851581 -2.169892 -0.568137 1.548165 0.541588 -2.872051 -0.847149 -1.138729 1.357111 -2.615224 -0.893161 -0.276810 -1.420565 0.370183 -0.870937 0.426711 -0.910942 1.249700 -2.867594 0.133395 -1.544435 0.091190 -2.465888 -0.422783 2.889456 -1.339005 0.771586 -1.367934 0.581335 -0.640145 -1.301453 -2.246235 -3.877393 -0.217447 2.916956 1.481551 1.222780 0.025145 -0.540416 -0.985656 0.148972 0.550144 1.831543
Q18209262 0.000328 -0.236832 -0.316441 3.656997 1.064957 -1.027260 1.719876 0.715687 0.699963 -1.244275 0.909513 -0.660621 0.157409 0.558766 -0.968282 -1.876061 -0.737743 -1.318227 -1.624660 -1.672529 1.454813 1.262874 0.705845 2.680266 -1.325676 -0.350961 0.696652 0.996700 -2.852214 2.025085 -0.064189 -0.789614 -0.203935 2.515743 -2.122799 2.352954 -1.875050 -0.754467 -0.234546 -0.926533 -1.516089 0.017350 1.425594 0.747636 -0.777680 -2.755301 -1.033221 2.593292 0.965172 1.119110 -2.189314 -0.472729 -2.643552 -0.091371 -0.016652 -0.278558 -2.080703 -1.289975 -2.473186 -0.144405 0.086152 1.208601 -0.171538 -0.107194 1.193595 0.326116 -0.542045 1.747739 0.829634 1.261613 0.250380 -0.909202 -1.043589 0.780775 -0.812874 -0.442389 0.226394 1.376614 0.514885 -1.175680 -0.860397 -0.171754 1.483123 1.173635 0.906643 -2.314844 -1.756429 -0.566109 -3.404123 -1.629448 1.010548 1.600133 -0.696068 0.060112 -0.301044 -1.230181 -1.141900 -1.345798 -1.532909 1.536682
Q19691896 1.994933 -0.261956 -2.039415 4.845068 0.091873 -2.019532 0.563150 -0.681421 -0.400389 1.174263 0.825691 -0.189237 -1.122452 0.180800 0.465278 -3.048016 -0.370710 -0.914232 -0.798034 -0.648178 0.843975 -0.161678 -0.386721 4.956865 -0.571314 -0.459062 -0.510174 0.630290 0.433978 0.273261 -0.693938 2.607282 1.474449 1.262340 -1.596208 1.551705 -2.308264 -0.485089 -0.508691 -1.070554 -1.173551 -0.525578 -1.055851 -0.870704 0.376195 -1.369522 0.796042 3.623715 -0.442335 2.339778 -1.232629 0.742204 0.829476 1.216894 0.532514 -0.625109 -0.437046 1.595452 -0.887679 -1.166240 -0.083627 1.466582 -2.265099 -1.942738 0.625176 -0.902580 1.430455 -0.960812 2.406525 0.844484 -0.019224 0.868141 0.597849 0.163856 -1.535949 0.284524 0.124290 -0.337384 -0.726091 -1.109838 0.215801 0.954800 0.469262 0.230330 1.280164 -1.334642 0.480670 -0.550154 1.287617 0.476764 0.872329 2.165548 -1.021460 -0.608983 0.061176 -0.454435 -2.145851 -0.775065 -0.341787 0.479622
Q19837 -0.766944 -0.252177 -0.193143 -0.567517 -1.607876 -0.036218 0.626552 -1.813992 -2.279111 -0.095198 0.192301 0.047328 0.543303 -3.073668 -1.608467 -0.149361 1.058711 2.218827 -2.442727 -0.780125 1.297151 -1.139358 0.696795 -0.923353 -1.592850 0.715167 -0.869838 -0.489104 1.267026 -0.768838 -0.282389 -0.021384 -0.548049 0.083199 0.580801 1.664456 -0.056497 -1.656839 0.216848 -0.043601 0.244006 -1.183477 -1.985088 0.051841 -1.482854 -1.075853 0.231028 -0.883163 1.288022 0.751604 -1.129409 -0.158309 0.401197 0.400824 1.187572 1.289201 -0.522812 -0.529269 -1.813175 0.132103 0.026357 -1.261932 0.707090 -0.871079 0.423719 0.488014 2.378233 0.374292 1.195338 -1.057818 -1.280501 1.211042 0.874508 -0.192558 0.992103 -1.844873 2.435682 -1.910309 0.363424 -0.541358 -0.767066 0.974073 0.282552 0.184639 -2.081284 0.350181 0.395742 1.268909 -1.897973 -0.839913 1.017996 2.431791 1.434891 -1.050125 -2.513928 -0.181528 0.050149 0.080542 0.432999 1.359208
Q465472 0.151237 0.563306 1.524403 1.525748 -0.372928 -1.889148 -1.064235 -0.356067 0.338559 -0.892494 1.781046 -0.733554 0.573629 -1.716526 1.356696 -2.221056 -0.032167 0.533879 -0.947295 0.574663 -0.935593 1.198467 1.690358 1.576892 -0.423298 0.911315 -0.422714 0.303641 -1.592938 0.315589 -0.617074 0.805834 0.971560 2.077263 -0.414198 1.182783 -0.889213 -0.265217 0.324886 -1.033910 -0.143013 -1.888478 0.982368 -1.212467 -0.373998 -0.435820 -1.288164 -1.308087 0.751825 2.200946 -1.293435 0.486166 -0.747253 0.791557 0.240180 0.712071 2.637316 -0.885665 -1.940972 -0.660520 0.488114 0.631236 -1.275628 -0.195945 -0.135226 -0.299138 -0.828863 0.726443 2.805517 1.728324 0.556221 1.283246 0.226142 0.702364 1.885692 0.238230 1.421894 0.745724 0.082710 -1.536778 -0.929429 -1.556580 -0.272854 -0.583835 0.972518 -1.057753 0.805900 -1.832177 -1.691328 -0.809342 -0.224540 -0.602368 1.764235 0.784753 -0.373569 -0.784314 -1.327055 -0.065302 -0.417244 1.406873
Q29468 2.151125 -3.127877 2.297994 0.871119 1.570931 -1.031515 0.864189 0.666272 0.676760 -2.046761 1.183450 -1.044579 0.383263 0.859293 0.021466 2.930813 0.286329 0.241385 -1.027313 1.867009 -0.180670 -1.604946 -0.173999 0.776986 0.634710 0.826100 0.958137 -2.213704 1.237795 -2.423904 -0.301661 -1.310950 1.295980 1.306432 0.280591 1.459324 -0.938139 -2.413149 -0.446748 1.751160 0.067666 -1.261865 -1.084988 1.769319 -0.257300 -0.227062 -0.014861 -0.199201 -0.363770 -0.110038 0.031761 0.433664 1.354844 -0.719997 0.522864 -0.650715 -0.830796 -0.865379 1.105208 -0.215415 0.751133 -0.392885 0.549581 -1.527884 -1.430577 0.387725 -0.859264 1.214836 1.508561 -1.705552 0.141499 1.102513 3.707783 -0.069463 1.618081 0.225143 3.580637 2.062176 -0.808204 -1.144692 -1.707035 -2.005064 0.716959 2.278560 -0.982186 -0.194004 1.012049 1.188650 -0.889966 -1.428025 -0.610495 0.377505 1.152596 -0.617455 -0.270444 0.597890 -1.300752 0.048665 0.469138 0.413681
Q469302 -1.457003 -0.000960 0.874098 -0.340402 0.178850 -0.133781 -0.455784 -0.099457 -0.127593 -1.054137 1.029142 0.561451 -0.032931 1.019004 -0.024014 0.681621 1.392738 1.953429 0.108102 0.414533 1.382408 0.450537 1.693407 2.473711 -0.310673 -0.044862 0.836390 0.656787 0.884356 -0.601348 -1.270713 -0.250108 1.538808 0.341568 1.080363 -0.308629 0.219781 -1.061427 0.165282 -1.039666 0.193751 2.538310 0.639702 -0.414841 -0.276721 -0.442462 0.875659 1.218623 0.231506 0.843413 -0.560898 -2.338367 -0.381953 -1.922246 1.225808 -0.478095 -0.643270 -1.765956 -1.189634 -1.214446 -0.109304 -0.171064 1.193174 1.433268 -0.037748 2.468927 -0.194879 1.607560 1.949059 -1.562790 -1.178999 -1.388147 0.614854 0.274575 1.480116 -0.881670 0.478495 4.016515 1.621879 -2.661774 -0.166572 -0.974596 0.307104 1.078298 -2.799124 -1.604392 1.229782 0.973998 0.011880 -0.966135 -0.141751 -0.834257 0.360708 1.141262 -2.025604 -1.047905 0.146054 -0.847170 -0.841987 0.056283
Q16 0.947948 -1.417731 -0.361364 0.388435 -0.737501 1.045950 0.581175 0.622297 -0.356505 0.481446 0.865230 -0.083616 0.651129 -0.141214 -0.622216 0.653032 1.214539 -1.016683 -0.413344 0.719677 -1.522007 -1.228572 -0.882249 0.696228 -0.263701 1.157049 1.520330 -0.153909 2.588781 -0.950948 -0.880353 0.748440 -0.361261 0.145281 1.176184 0.383752 -0.584760 -0.619018 0.814327 -0.096127 3.020455 0.321297 -0.743402 1.152571 0.600109 2.008642 -0.111226 1.081484 1.672715 0.195846 -0.712953 -2.151371 0.329286 -1.156733 -0.785180 0.527300 -0.690610 -1.991307 -0.227961 1.813170 0.036224 -1.531629 -1.060979 -0.035196 0.504838 2.189505 1.097432 -2.115912 0.725781 0.618734 0.117897 1.649160 3.096808 -0.350513 3.522491 2.100168 -2.306361 -0.710199 -0.409694 0.085904 -1.448292 -1.636036 1.888049 -3.199677 -0.699255 0.647548 0.169953 1.489013 0.723212 -0.681055 -0.550526 -0.234411 -0.749446 0.018266 -0.452527 0.436554 -1.296454 2.290294 0.283078 2.079458
Q321846 -0.244025 0.067164 0.908366 -0.433516 0.407980 -0.177189 0.307366 0.168249 0.350743 -1.278805 1.299644 0.205076 -0.419319 0.874429 0.254440 -0.010396 1.099058 2.709894 -0.633696 0.312277 0.886448 -0.316049 1.486541 1.965263 0.384739 0.391202 1.541917 0.830517 0.420545 -2.021017 -1.689041 -0.609306 1.458990 0.404177 0.519372 0.198107 0.557484 -0.889351 -0.223326 -0.636223 -0.044646 2.439117 0.602241 0.253946 -0.654538 -0.657031 0.934291 1.257011 -0.040394 0.616511 -0.761673 -2.158702 0.724560 -1.367766 0.689434 -0.366076 -0.360857 -1.527408 -2.251886 -0.664596 -0.494152 -1.059376 0.905700 1.324242 -0.301384 1.727401 0.074546 0.982254 2.460907 -1.143759 -1.660018 -1.055573 0.704736 0.384027 1.881187 -1.245294 0.351796 3.130964 1.891170 -2.250586 -0.290143 -0.434190 0.735413 1.168692 -2.083692 -1.183503 0.680509 0.573271 0.031878 -0.849158 -0.751498 -0.504502 0.597434 0.796743 -1.277572 -0.795817 -0.362957 -0.853263 -0.603589 -0.662067
Q35332 1.389748 -0.941017 0.583975 -0.555743 -2.557968 -2.642147 0.258109 -0.201171 -1.819669 -1.842097 -1.220831 4.252260 0.673990 -0.725823 2.397089 -1.281828 0.500244 0.918839 -2.187760 -1.921958 -0.256546 -1.345794 -0.142465 0.423909 -0.674905 0.095270 -2.183433 -0.891998 -3.934334 -2.581069 2.206028 -1.659446 -0.169634 -0.326493 -0.423703 1.465986 -1.265815 -2.420006 1.016983 1.055505 1.947231 2.336958 0.258546 1.134368 -0.080500 -3.230619 -3.611057 -1.525554 2.243865 1.715829 0.863609 0.342056 -1.791146 0.723629 1.950680 2.597158 0.642062 -3.046376 -1.892825 1.152152 1.787493 1.058413 0.394035 -2.271587 -2.815569 0.706442 -1.778550 0.536118 1.190427 -0.864567 0.949884 -0.918569 2.725580 1.182417 2.046093 -0.818122 0.148574 -1.619700 -2.314047 -0.028928 -0.218262 1.649137 -1.196196 1.106067 -1.677178 1.293471 -1.416912 -3.289631 -3.088596 -3.581714 0.267459 2.126666 0.200568 -0.124980 -1.167704 -2.985059 -0.408705 0.765671 1.452547 2.840281
Q370185 1.166915 -0.246949 0.774112 2.490870 2.563629 -0.465902 0.161264 1.248270 -1.825957 0.909834 0.165918 1.015070 0.019660 -0.601789 -0.573172 -1.609512 0.778274 0.900281 -0.192722 0.557584 0.718018 0.048918 0.697077 2.639250 -0.246565 1.331305 -0.454926 2.635875 -1.381477 -0.042406 1.096975 0.781135 1.296568 1.269277 -1.492090 1.447215 -1.873466 -1.977906 1.227284 -1.396220 -0.902035 -0.509998 -0.544359 -0.378363 -0.305602 -1.618354 0.166948 2.108849 2.032500 0.463087 -0.233449 0.915563 -1.086847 0.988877 0.024513 -0.372490 -0.720267 -2.127210 -0.115735 -2.543929 -0.319301 -0.936046 -0.808938 -0.458255 1.440192 0.918972 -1.468089 -0.786086 2.181885 1.114705 -0.067000 -0.052682 0.361891 -0.732466 -1.612402 0.885371 0.768497 -0.382249 -1.200369 -1.671457 0.165521 -1.043651 0.622593 -0.930339 -1.345299 -1.715587 1.029571 -0.439931 0.178285 -1.789984 -0.320523 2.578596 -1.368421 0.966099 -0.112577 -0.690925 -2.370677 0.881695 -0.253159 0.968969
Q846330 0.719412 -0.745149 1.044268 1.204461 1.197957 0.147315 -0.236112 0.895387 0.204954 -1.184834 0.790442 -2.628906 -0.416011 1.397329 -0.024692 1.234014 -0.877796 0.026427 0.279276 -0.599779 -0.898288 -1.606625 -0.169517 0.102745 1.899350 1.217807 1.191727 -1.384546 -0.423412 -1.834497 -0.111465 -0.841836 0.940341 0.554931 1.210264 -0.199558 -1.244266 -1.176934 -0.755221 -0.355316 0.884009 -1.012952 -0.272330 -1.009330 -0.452851 1.079467 -0.406954 0.136192 1.086741 -0.623518 -0.833182 0.813106 -1.190166 0.700769 0.284580 0.674785 -1.237484 0.069345 0.764359 0.911902 0.407665 0.008518 -0.023763 -1.468372 -1.000409 0.412193 -0.139117 0.867982 -0.464888 -0.690411 -1.224976 0.503118 1.494902 -1.503268 0.230411 -0.329107 1.877285 -1.357083 -0.889169 -0.076804 -1.856447 -1.054843 0.795253 0.456749 -0.845917 0.372967 0.070565 -0.377797 -0.536668 -0.347237 -1.433444 0.532302 1.234321 -0.758769 1.455622 0.153827 -1.099625 -0.572543 -0.606220 0.940259
Q17 0.795984 -0.288958 0.575528 -0.211700 -0.643208 0.887182 -0.419368 -0.123949 0.652783 0.808170 -0.577941 -1.641511 -0.764981 -0.352892 0.363648 -0.011048 0.182920 -1.479678 0.562621 0.887150 -2.219054 -0.482106 -1.088051 -0.408506 -0.395106 1.553725 0.940133 -0.123875 2.561967 -1.186639 -1.996670 -0.191050 0.694039 -1.805769 0.808635 1.052565 0.437967 1.352646 0.149035 -0.164788 1.577085 1.675418 0.432421 0.511525 -0.681650 1.996460 2.621312 -1.093223 0.787776 1.060330 -0.357306 -0.131858 -1.069098 -0.537979 -1.375336 -0.283682 -0.986482 0.565694 -1.178406 0.385423 -0.180246 -1.345478 0.209498 0.271942 2.237612 1.767046 2.706722 -1.043019 0.044046 3.374077 0.299700 1.837699 4.284632 0.203238 3.387768 0.380167 -0.582182 -1.047646 0.627253 0.256529 -0.128450 -1.875076 2.624713 -1.056594 0.097242 -0.095534 0.126528 1.928255 1.086377 -0.445670 1.515926 1.048574 0.182640 -1.565832 -0.993724 1.758965 -0.440613 2.446691 1.738426 0.830618
Q7349717 0.608876 -0.999649 -1.994581 2.075417 -0.255471 -0.454273 1.494292 -0.095666 1.120019 -1.049124 0.872842 -0.143330 0.661356 -0.810829 -0.391991 0.152794 -1.178769 -0.807180 -0.873630 -1.137854 1.114510 3.131823 0.813749 0.408651 -2.066808 -0.442275 1.561015 0.080287 -2.510976 0.392715 0.230993 -2.622434 -0.192747 2.315092 -1.166203 2.113250 -1.491762 -0.351126 -1.049271 -0.838422 -0.606250 0.358459 1.375514 -1.121792 -0.496767 -1.855128 -1.635578 2.755633 -1.476200 0.512528 -0.134710 -0.231825 -3.078770 -1.852066 -0.618731 0.888053 -0.971253 -0.660882 -1.899511 -0.381194 2.191749 -0.325996 -0.305671 1.159617 2.688617 0.935382 0.719475 2.911670 0.629542 -0.804822 -2.972345 -1.401734 -1.328995 0.961623 -0.772340 -0.452653 -0.031817 2.726790 -1.045019 0.842569 -0.265804 -0.713204 1.128647 0.641465 1.917054 -2.723374 -1.298229 0.933973 -3.535051 -1.555398 1.280353 1.297170 -0.930724 -0.830517 -0.333542 -1.724171 -0.411762 -2.092884 -1.359536 2.894226
Q148 1.078197 -1.536187 1.409149 -0.430805 0.719479 1.246934 0.433610 -0.616460 0.873397 -0.974838 0.193229 -2.460771 0.104609 0.200168 -0.131610 0.503158 0.297594 -0.883374 0.136157 0.329698 -1.039089 -1.017841 -1.609869 -0.007661 -1.347661 1.828357 0.756398 -0.212068 3.392748 0.503352 -0.685893 -2.316786 0.412769 0.176508 1.244370 0.406162 -0.294681 -0.832195 1.152764 -0.223266 1.887955 0.630136 -1.617252 0.219173 0.679836 0.524018 -0.447394 -0.296710 1.773844 -0.242236 0.546893 0.843947 -0.582423 -0.713156 -2.228656 0.414431 -2.074352 0.413427 -1.954441 -0.052770 -0.939414 -1.109956 0.384801 1.005719 2.007231 1.992367 0.014339 -0.269584 0.998491 2.093021 0.047943 1.143043 3.130321 -1.151959 3.152562 1.219802 -0.921703 -0.980999 1.145651 1.122715 0.256910 -1.769882 2.813043 -1.772062 1.463663 -1.414367 0.209091 3.389145 2.598855 0.179438 1.668810 0.993936 0.458180 -0.648932 -0.065313 1.937741 -1.039901 2.702746 1.162479 1.378939
Q95055 -0.731793 -0.954799 1.296678 -1.099443 0.543540 0.700135 0.113980 -1.152210 0.651415 -0.347630 1.017520 0.923809 -0.600714 0.977855 -1.062524 -0.212491 1.012500 1.403813 0.403794 0.014036 1.674336 0.469309 1.164893 1.758036 0.603538 -0.251600 1.083021 0.033944 0.638352 -1.850036 -1.395135 -0.251599 1.698038 1.389214 0.336136 0.736832 1.282969 -1.456091 -0.591286 -1.428468 -0.557476 2.974774 0.743567 1.312360 0.035636 -1.698051 0.069443 0.991149 0.479877 2.211700 -0.495471 -1.794670 0.013437 -1.558020 1.539888 -0.450884 0.169789 -0.547044 -0.987121 -0.591294 -0.191451 -0.056756 0.588145 0.624714 -1.195668 2.543802 -0.942189 0.795843 2.860613 -0.535469 -1.648386 -1.098685 0.600504 0.200366 2.203180 -0.339957 0.364376 2.101113 1.647057 -1.916862 -0.033113 -0.966582 0.971163 1.896801 -2.547701 -0.257884 0.868337 0.459065 -0.887448 -1.365190 -1.317838 -0.891871 0.778323 0.025155 -1.532951 -0.848824 0.164656 -1.468336 -0.623422 -0.413069
Q3731533 0.765439 -1.931303 1.933795 2.013755 -2.281612 1.610560 0.782306 1.692311 0.372918 -0.988181 -0.069422 -0.433606 1.411579 0.486525 -1.279292 0.454053 -0.615963 0.666881 0.630750 2.303149 1.237133 0.261654 0.587834 2.530154 0.533535 0.008447 1.396765 -0.280721 -0.489414 -0.838180 0.269781 -1.740810 0.030745 0.820679 2.062169 0.704135 0.430071 -2.539241 -0.819643 0.157197 1.029078 0.366391 0.814616 -0.203684 1.517239 -1.238908 0.737547 1.393309 -0.526831 -1.925993 -0.867401 -0.687719 0.840504 0.370715 -1.000551 -1.233046 0.638942 0.963148 -0.942624 1.245093 0.059485 -1.284178 -0.428272 -0.126266 -0.166998 -0.028738 2.067522 1.994317 3.286227 0.042303 -0.771053 -0.774165 0.475911 -1.415279 0.705540 -0.253360 2.440454 0.109071 -0.885584 -0.537208 -0.923347 -2.324217 0.054947 0.549674 0.192454 1.648606 1.039687 -0.995405 -1.948340 -1.256286 -1.032666 0.409079 -1.142980 -0.312987 -0.503484 -1.706105 -0.233484 0.628742 0.524220 -0.809026
Q937 -1.456768 1.644792 0.279306 -1.523738 -0.847028 0.403946 1.210036 -2.136426 0.185800 -0.652737 -1.098052 -0.928318 -0.073145 -1.865136 0.519175 1.569605 0.430768 0.926772 -2.676747 0.414572 0.251545 -0.549892 -0.005105 -2.491839 -0.392854 2.477307 -0.613975 0.544074 1.019496 -2.555873 0.151742 1.708671 0.844779 0.382641 -1.180810 1.870272 2.691045 -2.902614 -0.195560 0.392422 1.208141 -1.329823 -0.700923 -1.021329 1.525157 0.756345 -0.245833 2.922549 0.343444 0.614160 -1.075413 1.340016 0.692535 -0.929465 0.459578 -0.036692 -1.693809 -0.359812 -0.658315 0.928644 2.383349 -0.182745 0.712341 -1.172202 0.595673 -0.053406 2.269538 0.244240 -1.058986 -0.247969 -1.672475 -0.327595 1.813678 0.250591 1.895056 0.343172 1.330428 -0.482540 -1.703456 -0.874708 1.146259 -0.409778 -1.099674 -2.063001 -0.824354 -0.175922 -1.737432 0.180881 -1.622209 0.202581 1.476671 1.377249 -0.011533 0.330572 -2.829800 2.182557 -1.991658 -0.034569 0.753319 1.665634
Q408 1.239242 -0.322661 -0.211566 -1.412725 -0.492495 0.921857 -0.603706 0.092829 0.015223 1.812810 0.611656 -0.054763 0.496304 0.891399 0.832054 0.443306 1.023726 -0.793430 -0.503618 -1.045861 -0.753480 -1.921087 0.030672 -0.398397 -0.116463 0.875785 0.043480 0.323942 2.614665 -1.772783 -0.783529 -1.281782 -0.305471 0.768527 0.630318 0.761824 -0.473685 -0.851991 1.976863 1.289077 2.778494 0.700178 -0.181936 1.080611 1.741940 2.032725 0.173159 0.170182 2.228915 -0.829456 0.819363 -0.385398 -0.688344 -0.459935 -1.018505 0.377092 -0.418383 0.494677 -0.969671 1.816970 0.845895 -1.868268 0.027020 -0.945489 0.190165 2.127991 2.239423 -2.643183 -0.638160 1.650616 2.093273 1.610642 1.023388 0.660978 2.945027 1.228871 -0.282243 -0.688196 -0.708964 -0.252947 0.162675 -1.711465 1.879481 -1.018664 -0.492210 0.836303 -0.623729 1.566742 0.582776 -0.082503 0.826704 1.165888 -0.971956 -0.129855 -0.649161 1.313607 -1.249763 1.823883 0.432510 1.513972
Q14925221 2.760863 0.620471 -0.102980 4.927211 -0.152564 -2.724224 0.594991 0.420088 -1.141560 -1.149563 2.403632 0.406862 0.807886 0.654500 -0.061681 -2.227942 -0.582237 -1.045425 -0.846457 0.561677 1.127502 0.823181 0.250456 1.502578 -0.761255 -0.287821 0.074772 1.090893 -0.658056 0.694309 1.240919 0.534153 1.122677 1.030177 -1.926749 0.269299 0.469694 1.879079 -0.481388 -2.222982 0.652250 -0.052699 -0.290327 0.231070 -0.720069 -0.391564 0.293457 1.082560 2.209188 2.481535 -0.859173 1.470133 -1.048441 0.871793 1.098307 -0.000893 -0.635061 -0.378873 -1.456765 -1.081205 -0.105400 2.112978 -1.417696 -1.705124 2.093815 -0.852010 -2.071805 -0.067437 -0.839550 0.693069 1.460274 0.258727 -0.080698 -1.222646 -0.919783 0.882435 0.979353 -1.805115 0.868848 -0.245892 0.435359 -1.753860 0.692349 0.773372 0.699885 -1.346018 2.300125 -1.327429 -1.435446 -1.928841 -0.314199 0.743135 -0.449679 1.455924 1.463416 -0.318598 1.103865 -0.529862 -1.830750 0.448331
Q21072320 0.392285 0.322260 -0.768433 3.023325 0.427034 -2.744207 -0.996826 -0.378520 -0.868386 -0.956232 0.369828 1.503927 -1.318469 0.458583 0.107645 -2.585044 -0.784396 -0.373623 0.907039 -1.997617 0.433749 0.387809 0.230112 1.640272 -1.308026 -0.950406 0.663138 2.404247 0.543920 0.767673 -1.094306 -0.018702 0.346896 2.429686 -0.528583 0.571201 -1.677110 -2.006161 -0.797570 0.382034 0.203236 -0.482761 0.667069 0.663423 0.412413 -0.917529 0.695954 2.476800 1.213370 1.090855 0.014044 0.447158 -0.567972 2.130303 1.596669 0.460951 -1.746116 1.959934 -1.223260 -1.927067 -1.214653 0.060042 0.458258 -1.123825 0.067081 0.564188 -0.621970 -1.199897 3.135456 0.676041 1.907376 0.376920 0.573007 -2.180992 -0.182378 1.040500 -0.654451 0.815061 -0.312818 -1.862351 0.092092 -0.525037 -0.781834 0.310727 -0.439698 0.182242 0.276776 -0.710049 -0.426052 -0.317698 1.174764 2.320955 -0.677502 0.888729 0.846555 -0.830118 -0.822775 -0.505991 -2.152846 0.817414
